985 128
86626 0.31715965 0.1895616 0.13052002 0.027350202 -0.01756334 -0.10709746 0.18842652 0.10060398 0.22821043 -0.32833147 0.13619654 -0.1472832 -0.01668633 0.16790143 -0.32275945 0.046432074 -0.17736109 0.1692643 -0.13702096 -0.07049506 -0.041120324 -0.04698971 0.13317282 0.15911551 0.18705092 -0.03718844 -0.29027578 -0.15086076 0.102987126 0.07271416 -0.11347661 -0.21869138 -0.26700062 0.045503266 0.085078195 0.06897196 0.0801105 0.046580147 0.007388125 0.064358756 0.10866185 0.07842118 -0.047508314 0.16676025 -0.18635486 -0.07600909 0.07751351 0.07783895 0.09891819 -0.047248468 -0.114396825 0.037122447 -0.06113369 -0.1477261 -0.20320942 0.025553793 -0.0069543533 -0.17622046 0.106032796 0.05940727 0.07591933 -0.19843122 -0.049206786 0.042779002 0.1652011 0.24098127 0.22548498 0.21242681 -0.030236026 -0.031135572 -0.13491459 0.17636037 -0.0807121 -0.17964019 0.10606913 0.16137588 -0.06814636 0.06413475 0.0130511075 0.002594464 0.1060846 0.05717353 0.032255474 -0.1637457 0.07235551 -0.041175134 -0.19030708 -0.009989489 -0.039258353 -0.12333312 0.22123319 0.002264793 0.014827589 -0.19086382 0.10112689 -0.087491564 -0.093223035 -0.08674959 -0.20190902 -0.027189638 -0.04415429 0.16693789 0.2163677 0.19362539 0.11535378 0.01674197 -0.07546612 -0.060339157 -0.0018293968 -0.05472282 -0.054451507 0.007312121 -0.12274132 -0.045758724 0.122495085 -0.040646188 0.18494883 0.08562266 -0.15461381 -0.07213608 -0.07651972 0.1193818 0.07143244 0.0030184435 -0.06015769 0.091299 0.25813773 -0.23886356
103471 0.23285016 0.08735172 0.04999786 -0.0053536007 0.09876625 0.04127342 0.17633638 0.036781438 -0.03757195 -0.0713729 0.25380203 0.07537511 -0.057754755 0.007898743 -0.21284471 0.069183834 -0.013137307 0.13864474 0.19114749 -0.14437863 0.058193788 -0.12939991 0.19936211 0.18566717 0.08435466 -0.062004592 -0.12184297 0.01704538 0.09270466 0.2142189 -0.18865867 -0.034884535 -0.030997112 0.110343255 0.033354416 -0.10700578 0.075321265 0.07347874 -0.038858898 0.18404514 -0.0032131665 0.28410247 0.10838242 0.025317842 -0.019529369 -0.085826926 -0.16672774 0.16543317 -0.043701287 -0.38152277 -0.23933321 0.073415354 -0.23780207 0.008601422 -0.29890826 0.3098998 -0.021962583 -0.023657694 0.13910943 -0.19632141 0.07033094 -0.12991744 -0.09190927 0.15984158 0.35296783 0.13204198 -0.017054636 0.13190047 0.015485193 0.060951352 -0.18574399 0.20105873 0.15261324 -0.039188556 0.23171724 0.08364038 -0.031525973 -0.021460071 -0.07857896 -0.032000754 0.021765975 -0.065206036 -0.08941152 -0.04982609 0.13624033 -0.048083134 -0.012227168 -0.15321645 -0.10502113 -0.15103133 0.09375887 0.09111402 -0.0050263116 -0.115509965 0.09048592 -0.13624212 0.034262083 -0.069986254 -0.11596045 -0.082084864 0.10394227 -0.017938867 0.08714996 0.09621712 0.033234708 -0.06816701 -0.16638243 -0.020413287 -0.02589279 -0.20537445 -0.20078626 -0.2540111 -0.0590918 -0.004035937 0.250301 -0.0089523615 0.057752058 -0.10006796 -0.11425405 -0.15544154 -0.043187078 0.04748257 -0.0314595 0.094178826 0.2156296 0.02482917 0.08905821 -0.065584
71781 0.2175195 0.22214961 0.03302733 -0.07525056 -0.016941236 -0.045270886 0.019313598 0.1471409 0.010527579 -0.22113635 0.18288827 0.00081943296 0.08948265 0.119997 0.02753235 0.257059 -0.050696004 0.14133136 -0.07269612 -0.21972677 0.17269428 -0.16120109 0.06736314 0.061188284 0.009559105 -0.11561481 -0.13472433 0.115318745 0.13032801 0.10682579 -0.0015197429 -0.13725713 0.041015282 0.09073072 0.060946 0.16641514 -0.16653532 0.09037038 0.059991054 0.15396199 0.058273427 0.1479381 0.12685764 -0.090330325 -0.10645545 0.03336278 0.025073681 -0.09914038 0.00880556 0.07953023 -0.27699888 0.052739065 0.0358976 0.073564686 -0.4715776 -0.10703409 -0.054582495 -0.14088215 0.10548274 -0.12691839 0.09603032 -0.20862673 -0.20883358 -0.008509285 0.19327495 0.15721247 -0.04933499 0.15719135 -0.2154576 0.07912165 -0.15154423 0.14691187 0.19091293 -0.090256535 0.2782377 -0.1428035 -0.24424197 -0.09388772 -0.02177455 0.079686515 0.19036128 -0.120230876 0.034735337 -0.052768756 0.17780346 -0.045730878 -0.1315717 0.07467175 -0.1164272 -0.09237512 0.22008392 0.07277595 -0.20466833 -0.19985196 0.10333106 -0.19165076 0.016616391 0.053879883 -0.13463373 -0.073785864 -0.0004902484 -0.061409004 0.09610656 0.07822461 -0.03254845 -0.02497572 -0.087478995 -0.053392492 -0.0033079744 -0.1231918 0.048251692 -0.09686695 -0.10719001 0.01413652 -0.019186238 -0.16526103 0.053841274 -0.11137147 -0.20633154 -0.16256133 -0.07903608 -0.053717975 -0.1879668 0.14672956 0.1366448 0.15671349 0.1404584 0.033586055
98520 0.3114165 0.1596695 0.11704256 -0.01191552 -0.001579164 0.0058208723 0.26976985 -0.048511747 -0.043001994 -0.18776643 0.16320433 -0.036199883 -0.011748913 0.1437656 -0.1818547 0.19982727 -0.22635978 0.25812897 -0.12402058 0.029479753 0.09807724 -0.24239431 0.060425717 0.072340176 -0.015122138 -0.2252238 -0.15538654 0.16125438 -0.16530819 0.08246075 -0.22537152 -0.17699707 -0.022320185 0.0054200543 0.17142203 -0.18340302 0.022241252 -0.24831983 0.1962869 0.12193854 0.059652746 -0.01527002 -0.06811836 0.3224341 0.0041348604 -0.04653911 -0.13266316 0.15234046 0.102648884 -0.062476795 -0.15912387 -0.02400037 -0.074136175 0.06537037 -0.09996187 0.1254858 -0.06063472 0.074939124 0.09227474 -0.04289244 0.105614066 -0.10832011 -0.037292082 0.14263934 0.040044896 -0.032370448 -0.054963723 -0.056113668 -0.012081489 0.07856501 -0.05717943 0.25820726 0.07191946 -0.12854235 0.044813477 0.055536598 -0.21740453 -0.21131551 0.0018339169 -0.057240672 0.09097217 -0.0641364 -0.06523707 0.043304253 0.13959683 -0.20585072 -0.038606733 0.10854702 -0.15497845 -0.018503044 0.14808048 0.0773972 -0.020145072 -0.2116423 0.026863603 -0.07245506 0.0508066 0.119825505 -0.08013134 -0.09396064 -0.15610804 0.11597871 0.198012 0.17112722 0.18024309 0.0063785566 -0.010270052 0.26930264 0.0039649326 -0.09903646 -0.0936072 -0.07319555 -0.03845368 -0.0023636196 0.18429936 -0.1215203 0.016816897 -0.097373076 -0.08336211 -0.25521228 0.16455859 0.08344712 -0.048706234 0.070797525 0.129355 -0.111325525 0.045548733 -0.24138567
97406 0.30565 0.18610288 -0.0053940574 -0.031129962 -0.014331118 0.31526616 0.058621395 0.058111973 0.0057225917 -0.12673865 0.34996325 0.08648266 0.01904671 0.047253743 -0.29143503 -0.021885656 -0.158747 0.16906843 0.12916355 -0.12388953 0.11045177 -0.16123861 0.0913191 0.10090921 -0.01654269 -0.07879974 -0.15661077 0.007031736 0.15212506 0.22106758 -0.10982973 -0.22469035 -0.14766458 0.053360783 0.2546478 0.017095685 -0.08612204 -0.099322505 0.015176069 0.04345162 0.046963543 0.22927238 0.062085 0.08231738 0.0009320279 -0.09195042 -0.03330818 0.017376248 -0.12512115 -0.185329 0.07097421 -0.11549353 -0.08659295 0.002790083 0.014048307 0.025177415 -0.07733368 -0.21937159 0.05201179 0.04667423 0.07281131 -0.118628405 -0.07458542 -0.007944793 0.21595038 0.19478062 -0.16819422 0.021185292 0.13251106 0.09050979 -0.14696893 0.083539635 0.05908784 0.104289815 -0.12498583 0.20014055 -0.11040105 -0.14195754 -0.08093954 -0.17121682 0.067294754 -0.0020270853 0.07542466 -0.076213315 -0.1008015 -0.033432767 -0.1432809 -0.15270683 -0.120224446 0.082237475 -0.07280933 -0.22623871 0.18815815 -0.017015778 -0.038891952 -0.019439561 0.09410783 0.19147179 -0.2024196 0.054013565 -0.021418132 0.053023387 0.1477124 0.16579269 -0.1624735 -0.008811704 -0.14904346 0.018495152 -0.101693094 -0.0032789563 -0.26134658 0.025137264 -0.38369733 0.0072437716 0.19501565 0.22672525 0.22410685 -0.20262331 -0.053799275 -0.20975073 -0.11499292 0.23035151 -0.09471198 -0.053020194 0.038368303 0.132708 0.21824235 -0.2838901
90749 0.39424086 0.18939611 0.043870736 -0.026258603 -0.062018972 0.084802836 0.11636818 0.016912268 0.020648906 -0.071424805 0.17657769 -0.061084468 -0.05247301 0.009364237 -0.24746478 0.18746337 -0.07019026 0.36434337 -0.13621128 -0.28342867 0.04617376 -0.13657604 0.08379113 0.09588594 0.12203589 0.03942542 -0.22120044 0.059909735 0.045182783 0.1636951 -0.073066786 -0.024427826 -0.2277899 0.21587329 0.12334834 -0.105301 0.048347887 -0.057323087 0.044963103 0.22302063 0.14600456 -0.088847496 -0.10462999 -0.1171339 -0.004990208 -0.20013174 0.13376333 0.091449715 0.15183762 -0.102105916 -0.035822757 -0.10039095 -0.020647585 -0.10506111 -0.21936725 0.07158332 0.12929781 0.0053868354 -0.089586325 0.102550775 -0.023986368 -0.03348281 0.0007578856 0.10021853 0.09658607 0.047834937 0.00038807277 -0.15927327 0.055001106 0.06344909 0.005444715 0.2484593 0.06750747 -0.19924352 -0.02165718 -0.08232618 -0.1327373 -0.072556406 0.047907963 0.19492735 -0.08932089 -0.06434082 0.10914629 -0.206508 0.105988376 -0.027244532 -0.20850411 0.022812316 -0.1797278 -0.012205129 0.15144664 0.066469744 -0.0042750263 -0.15967526 -0.04902137 -0.10943096 0.009962487 -0.16975895 -0.109840825 -0.06302916 -0.14959808 0.042740036 0.058702346 0.14521004 0.0051418883 -0.11114893 -0.1973574 0.07710481 0.012591575 -0.18163899 0.008093685 0.06354239 -0.06136624 -0.07081365 0.0811406 -0.046723813 0.08000436 -0.16845821 -0.07350216 -0.17545354 0.18282853 0.2673771 -0.21193744 -0.22814561 0.20736757 -0.00508728 0.13606632 -0.09747859
98704 -0.04230564 0.2290725 -0.021952638 -0.24840406 0.038709078 -0.009461806 -0.30155182 0.17832859 -0.12873223 -0.4718968 0.0867035 0.079048306 -0.053035002 0.21029955 -0.2013366 -0.1673993 -0.019143114 0.08423166 -0.016673233 0.17246546 0.22632496 -0.2409943 0.32134432 -0.094755426 -0.29880795 -0.055761952 0.039527617 0.09212912 0.2661405 0.20245732 -0.009032961 -0.11658763 -0.033675034 0.22353265 0.00697336 0.118486434 -0.057971176 0.018820863 0.6152521 0.0741031 0.21918379 0.090170115 -0.09350677 0.10063407 0.15040137 0.02296285 -0.01959638 0.14001106 -0.24793552 -0.2637903 -0.07708483 -0.05456127 0.07055421 -0.20453021 -0.0022461254 0.048285704 0.0020696302 0.089999035 0.036715332 -0.026885353 0.22364457 -0.2569071 -0.036727883 -0.019668825 -0.0057054 0.5122783 -0.06027318 0.077990726 -0.025584226 -0.15675686 -0.03407365 0.21905151 0.14607315 -0.15637867 0.3192629 0.24352697 -0.0060089747 0.068180785 -0.15829647 -0.0722007 0.07832735 -0.046932112 -0.08208717 -0.23357256 -0.010741504 0.06375826 -0.14349297 -0.013288919 -0.0032787963 -0.27860036 0.20539911 -0.12192187 -0.15207916 0.1145349 0.23205961 -0.18551879 -0.13048266 0.04469441 -0.03842825 -0.24693502 0.004012591 -0.09030779 -0.21424651 -0.21874906 0.30064374 0.07749328 -0.15479173 -0.15300258 -0.1696878 -0.12293167 -0.22891848 0.08180789 0.0033955635 0.079810835 0.03761583 0.11776394 0.028224835 -0.1555838 -0.03576822 -0.339576 0.02321511 0.27753216 -0.0011699644 0.04723748 0.23476517 0.11876031 0.41231823 -0.08009392
95917 0.33972153 0.23871322 -0.007022281 -0.018351523 0.010064022 -0.05596648 0.25062805 0.027060283 -0.034476362 -0.17154658 0.20829839 -0.038958494 0.013376825 0.07577646 -0.24311222 0.072351865 -0.14504598 0.16943175 -0.08739114 -0.13613744 0.12604989 -0.11458531 0.10641613 0.046937924 -0.06136861 -0.14408927 -0.19244686 0.14163773 0.070885316 0.051108085 -0.23563041 -0.07680928 -0.078712255 0.14310503 0.05899333 -0.013805019 0.011954559 -0.119548805 0.14920177 0.053533096 0.04162495 -0.045169774 -0.04938532 0.21330172 0.10350524 -0.05870911 -0.021638464 0.08542156 -0.12362191 -0.012181422 -0.22623134 -0.069550805 0.007615345 0.11993838 -0.15119556 0.14999612 0.0033695297 0.120917976 0.031896662 -0.11364005 0.028474228 -0.03405354 -0.12972113 -0.013189652 0.18160819 0.047928058 0.013988924 -0.031724025 -0.03485071 0.058232255 -0.0028727544 0.29475674 0.12576911 -0.27225307 0.08897508 -0.047728572 -0.27257606 -0.09433315 0.08043975 -0.05248699 0.0238304 -0.042711224 -0.15709916 -0.06834213 -0.010539944 -0.27725446 0.027922016 0.15168831 0.023442537 -0.205293 0.01242943 0.013410467 -0.094462246 -0.13222302 0.012241257 -0.053028226 0.020628313 0.1135913 -0.052723102 -0.07113212 -0.19972914 0.09244119 0.15482031 0.22823013 0.22809449 -0.08519596 -0.072215945 0.26266456 0.011256776 -0.030588979 -0.27688858 0.044794593 0.0035178808 -0.038091913 0.14448301 -0.11727214 0.08045816 -0.11163277 -0.09367286 -0.22399965 0.2321837 0.07855011 -0.07487832 -0.06663718 0.14681633 -0.11662312 0.042075504 -0.07861856
79767 0.120546766 0.26564065 -0.111692205 -0.1696328 -0.045016665 0.047088727 0.12827288 0.1627432 -0.13398981 -0.11566689 0.08347821 -0.20651273 -0.018812655 -0.034468982 -0.12725596 0.12645456 -0.10964525 0.167761 0.036780637 -0.04672593 0.2439785 -0.10725818 0.06780577 -0.0064663775 0.08943837 0.018945124 -0.3539336 0.06131866 0.20818466 0.2073594 0.08454724 -0.07421586 -0.037715953 0.010637792 0.1411636 -0.029386379 0.170277 0.17216186 -0.16223909 -0.011855312 0.041751314 0.14633603 0.105191305 0.032674942 -0.13580564 -0.10874286 0.09945213 0.23681381 -0.13923463 -0.04999218 -0.086183354 -0.034827914 -0.09470128 0.11512022 -0.24463066 0.107462235 -0.07183043 -0.219859 0.0343677 -0.024031233 -0.056984045 -0.099431075 -0.3679902 0.020681182 -0.03537016 0.1742458 0.01732962 0.18401563 -0.012939137 0.1312211 0.19617963 0.066770375 0.019859275 -0.03829904 0.072240435 0.101615794 -0.19633447 -0.073997535 0.06308495 0.14886776 0.1006782 0.21525456 -0.07523876 -0.01439512 0.14216286 -0.043222874 -0.0049052457 0.06951721 -0.0511979 0.00671832 0.25863117 -0.041033678 -0.030304462 -0.291352 0.055681307 -0.28124544 -0.0059499643 0.104653336 0.069785655 0.064358175 0.035403285 0.018111276 0.17210951 0.0970539 0.05162457 0.09853435 -0.22146682 -0.06232287 -0.09947552 -0.101123475 -0.060963746 0.08970081 -0.019822452 -0.23631494 0.056453735 -0.11149073 0.12453961 -0.04999217 -0.23657392 -0.095271274 -0.08094764 0.008450385 -0.21987711 0.15385069 0.029921146 0.08372439 -0.18952294 -0.041818928
101033 0.31682068 0.31118405 -0.040758263 0.042096395 0.008690448 0.16785702 0.0019279362 -0.036008354 -0.019568333 -0.23376508 0.27157563 0.15078613 0.035300117 0.008269553 -0.15266337 0.064374976 -0.14798485 0.20746571 -0.064459704 0.10542137 0.12215661 0.06621853 0.15601087 0.12051394 0.07995504 -0.028879983 -0.15447724 0.08408109 0.19707747 0.26619956 -0.22376333 -0.11204796 0.026325135 0.2748329 0.23470482 -0.28994113 0.036287606 0.12699193 -0.19446854 0.22217825 0.02230702 0.057414245 0.22117041 -0.021416375 0.027263984 -0.18247902 -0.019598862 0.017722482 0.041754175 -0.2013734 -0.069227725 -0.14514971 -0.17721525 -0.046997912 -0.19861214 0.047509156 0.050551154 -0.24649136 0.10477781 -0.02136313 0.048678365 -0.0198858 -0.25307092 -0.12589043 0.10425681 0.1601803 -0.2511071 0.01568993 0.13867554 0.057442058 -0.07684147 0.13216218 -0.22338511 -0.0004501352 0.14683336 0.21964946 -0.09236589 -0.08435448 0.055542134 -0.07349483 -0.10504664 -0.0109610455 0.02873579 -0.09958357 0.03716292 -0.10985824 -0.22018172 0.13268515 -0.1659264 0.27287024 -0.10875038 -0.0055144215 0.08041843 -0.13161723 0.051391784 0.0073544313 0.10048414 0.23358172 -0.0856382 -0.08273864 -0.012876293 0.044251863 0.1194732 0.17449358 -0.067768596 0.22871852 -0.15187623 0.15704785 -0.02830358 0.041229893 -0.16533554 -0.047578596 -0.328005 0.009743645 0.033305198 0.11528534 0.18270472 -0.14642386 -0.109407544 -0.16201502 0.073804066 0.08518598 0.031696137 -0.11385943 0.24739954 0.05456077 0.04890644 -0.045888517
102221 0.33975413 0.13684665 0.013608965 -0.13612795 0.034831658 0.11251653 -0.0014114316 -0.08960114 -0.22055334 -0.05518722 0.15132213 0.0063201454 0.054824926 0.087701395 -0.17398265 0.11694109 0.09459116 0.15392141 0.0028018842 -0.10226374 0.18383244 0.08696706 0.0026362059 0.14027244 -0.090159856 -0.13132437 -0.20593014 0.06718729 0.0980699 0.14668787 -0.16159211 -0.15128596 -0.09991213 0.07577565 0.18153627 -0.005672757 -0.08840248 -0.038476516 0.13794482 0.19893536 0.13356043 0.09741036 0.077283815 0.009369728 0.12478278 0.043335047 0.11174246 0.09823522 0.14581612 -0.053832896 -0.08959714 -0.102277085 -0.2002795 0.08704091 -0.15625998 -0.0965953 -0.09838062 0.08612374 0.0005132536 -0.012583842 -0.019548867 -0.20943387 -0.17177285 -0.014039138 0.1727588 -0.036991477 -0.08888049 0.01491311 -0.26609188 0.053055283 -0.18243799 0.23600313 -0.112285554 -0.39793846 0.1999117 0.051266078 -0.2603967 -0.10996769 0.063765615 0.07181626 7.440599e-05 0.04249848 0.033775423 -0.08801287 0.065706275 -0.092606895 -0.20125604 0.14779031 -0.2878317 -0.042930197 0.0825639 0.052617606 -0.01034292 -0.1470072 0.25096926 -0.054165214 0.013829668 0.14155069 -0.041338608 -0.064710446 -0.17967379 0.15454009 0.19478115 -0.024248056 0.057919476 -0.04424149 -0.16824338 0.04142873 -0.064833984 0.019361218 -0.16474174 -0.035848133 -0.009228617 0.06001924 -0.07171034 0.012801017 0.19105075 -0.047154114 -0.19710058 -0.21356964 0.16915874 0.15634799 -0.065301955 -0.0466951 0.0019006825 -0.03866071 0.05518125 -0.07932723
72598 0.13995959 -0.05318701 -0.17304336 0.01885066 0.030519426 -0.13417345 0.35380098 0.065594025 0.35406786 -0.24433152 0.31712452 -0.03825574 -0.043562923 0.25405762 -0.22971082 0.16205743 -0.07717865 -0.017300673 -0.040024087 -0.25922844 0.13155197 -0.31413874 0.37217456 0.03105512 0.04497231 -0.118704684 -0.17742226 0.17392369 0.09502246 0.05974224 -0.022383973 -0.06464098 0.10977408 0.04063455 0.46382892 0.05086068 0.15502536 -0.19012749 0.022685776 0.0031755546 0.11676423 -0.031082578 0.09263939 0.037908778 0.14464739 -0.015372601 0.013290908 -0.013113926 0.009721346 0.036267247 -0.043348428 -0.056975324 -0.07738974 -0.1620722 -0.024608282 -0.1620259 -0.26998484 -0.08180658 -0.16631253 -0.2405558 -0.12462902 -0.06011184 -0.10091863 0.042157825 0.17281301 0.1270589 -0.072523005 -0.03417655 0.16581404 -0.08628765 0.14093135 0.119406484 -0.021081056 -0.27706036 0.019472845 0.05978447 -0.0078121093 -0.16496985 0.14438112 0.3419361 0.075974114 0.22915453 0.01367823 0.08691338 0.33499026 -0.013834426 -0.17648318 -0.15713616 -0.00892601 -0.1563419 -0.19301328 -0.02784888 -0.09057595 -0.2059076 0.06399036 -0.09551678 0.1686667 0.0049320776 -0.24883398 -0.031147918 -0.09519541 0.06587569 0.03794083 -0.10921771 -0.14160854 0.08164172 -0.3543605 0.09868739 0.037128273 -0.2393957 0.034732748 -0.11830812 -0.13421811 -0.17615177 0.10382152 -0.15113561 0.006306751 -0.2646771 -0.060226317 0.08998521 -0.012703469 -0.16180302 -0.024646947 0.04672657 0.18407267 0.1325439 -0.2601097 -0.034429807
101966 0.06734353 0.16797446 -0.05197657 -0.260842 0.2616987 -0.100590155 -0.030238204 0.059520997 0.027702698 -0.020091284 0.027666168 -0.033525486 0.15340407 0.26187947 0.034818865 0.21347137 -0.021505013 0.09975521 0.03257009 0.089634486 0.22550991 -0.056218896 0.18610127 -0.12552826 -0.11641638 -0.2690061 0.25065717 0.4625688 -0.039546013 0.050085295 -0.15791976 -0.1923998 0.05720385 0.29230613 0.060494307 -0.029979218 0.1602174 0.07753246 -0.024934238 0.018818116 0.09752143 0.1341131 0.19374204 -0.08630392 -0.17343085 -0.20359145 -0.0006832274 0.099591464 0.084067084 -0.24539432 -0.058431607 -0.12960449 0.0036231258 -0.006017272 0.15675159 0.13757925 -0.021775968 -0.01364449 0.054785065 0.10971347 0.14407024 0.041892238 -0.3060044 0.032849707 -0.08892047 0.19173127 -0.2485596 0.102679424 -0.048633095 -0.057269774 0.19227049 0.19564079 -0.26562056 -0.40465626 0.249087 -0.16550398 -0.09703354 -0.0032952775 -0.4226311 0.040659484 0.2787723 -0.0646481 -0.27495784 -0.03719611 0.08135105 0.34846625 -0.2900211 0.097449 -0.35506716 -0.16944326 0.05866022 -0.07843617 -0.2285328 -0.2143426 0.046056297 -0.043527506 0.060250703 -0.1281738 -0.17497176 -0.0020125345 -0.23218268 -0.3020599 -0.052665655 0.31451774 -0.25052458 0.17982765 -0.17073861 -0.1201578 -0.014484477 -0.0047692717 -0.15716133 -0.038088035 -0.03573262 -0.053172864 0.07535669 -0.014808394 -0.095962636 -0.3491449 -0.2217622 -0.19331686 -0.13343127 -0.1911835 -0.18495458 0.056679018 -0.005134874 0.2060239 0.19929615 -0.008104969
101483 0.21071152 0.18321505 -0.021916406 -0.17391866 0.05607241 0.363755 -0.04820561 -0.08967545 0.25706 -0.42347407 0.059104253 0.075099215 -0.045373935 -0.036745887 -0.016628377 -0.0081152255 -0.39351818 -0.02285482 -0.13113113 0.06779796 -0.014896814 -0.30830395 0.21511002 0.047345035 -0.16878974 -0.1717623 -0.061460983 -0.0069010644 0.09503995 0.14648427 -0.06147492 -0.24156699 -0.1541657 0.1599986 -0.0038087496 0.07946023 0.3021548 0.17503732 0.22309987 -0.12270617 0.052463666 -0.11198202 -0.036854006 0.24195687 -0.073110744 -0.16878101 0.025901662 -0.087158576 0.0058281166 -0.12852204 -0.32435662 -0.1607237 -0.06601195 -0.2058505 -0.03988909 -0.03360343 -0.14293806 0.0905049 0.00020229064 0.08251325 -0.11073722 -0.14887589 -0.1781349 -0.13011372 0.015626904 0.34949276 -0.083977014 -0.007955256 -0.010949945 -0.17307433 0.007068448 0.13078474 -0.065871164 -0.2429385 0.16175865 -0.13755438 0.24615626 -0.12587094 -0.13976221 -0.0054360065 0.02021999 -0.108044095 0.27323064 -0.18216878 -0.22009742 -0.042271428 0.033544496 -0.011286009 0.3050824 -0.31712398 0.10443809 -0.07618135 -0.08276289 -0.10543661 0.07313135 -0.28863862 -0.3522191 0.20389809 0.11872206 0.07775074 -0.11169119 -0.32096285 -0.1059278 -0.12936544 0.00067943515 0.13459338 0.041562445 -0.2899385 -0.030884618 -0.0049885786 -0.31232643 -0.31246802 0.16534811 -0.018939389 0.3773919 0.094098955 -0.027365422 -0.13368845 -0.29954952 -0.27658865 0.00960044 0.059253074 -0.21269998 -0.060925156 0.43740195 0.117773496 0.27234635 -0.25939673
76984 0.20115867 0.3409744 -0.01484771 0.01661076 0.18429263 0.2101723 0.013574004 -0.08914224 0.015559271 -0.18308601 0.062456142 -0.062556475 0.026368223 -0.2677086 -0.2158663 0.076282054 0.16632093 0.1075852 0.0044571133 -0.1766452 -0.0036399423 -0.29144317 -0.037787747 0.16008312 -0.061490625 -0.086201206 -0.19698487 0.13836461 0.03443509 0.026222259 -0.080499694 -0.15511604 0.127101 0.12086509 0.21916096 -0.08707893 0.19201753 -0.07127717 -0.06490156 0.165678 0.3110397 0.18828574 -0.07464706 0.059620924 0.25073826 -0.07396325 -0.025299994 -0.013895302 -0.14431301 -0.17154443 -0.06403496 -0.18832111 -0.15411936 0.21251273 -0.020210396 0.14582424 -0.16746347 0.0037539897 0.0050537516 -0.10404883 -0.01785551 -0.13723505 -0.17386504 0.0053056087 0.056590505 -0.11781569 -0.12187828 0.035767514 0.05735211 0.15304235 -0.09901339 0.2846935 -0.0823009 -0.12919958 0.17108275 -0.02625665 -0.09371186 -0.1477988 -0.026562251 0.08995917 -0.15822501 -0.06469341 -0.09509381 -0.16057971 0.22943453 -0.035365917 -0.24810682 0.014342818 -0.11061525 -0.19241142 0.13565074 0.15200537 0.2418278 -0.26798114 -0.033596177 -0.003503662 -0.074099995 0.21437442 0.09338437 -0.022130746 -0.12171253 -0.060085606 0.1568148 0.15410697 -0.05303433 -0.0022737293 -0.36584142 0.043197617 -0.029304614 0.031489838 0.0358885 -0.041178413 0.031535797 0.056666918 0.03954672 -0.20376454 0.032096937 -0.2601224 0.039257202 -0.060028426 0.1159792 0.15827905 -0.02043925 -0.035662048 0.21121205 0.064243466 -0.004956653 0.17593312
98762 0.14795044 0.29331157 -0.18173185 -0.2419006 0.033326264 -0.13215345 -0.05231179 0.057935335 0.33398688 -0.3469154 -0.09194551 -0.24280608 0.00031641402 -0.13642636 -0.117289014 -0.13567331 -0.06859969 0.091873355 0.13557091 -0.07499245 0.13346143 -0.40016595 -0.1273077 0.08864076 -0.030234504 0.0046204687 -0.38030162 -0.06375773 0.008212704 0.0861664 0.021011379 -0.35007417 -0.055899344 -0.08404384 0.3401004 0.050061796 -0.042482033 0.106191 0.08132764 0.06189635 0.079419814 0.2295108 -0.063756034 0.030277401 9.3890485e-05 -0.022404257 -0.031290673 0.02538539 -0.06052714 -0.026630444 -0.5089249 -0.055947863 0.002738641 0.009276464 0.04254394 0.07154849 -0.032997277 -0.18189804 0.1726254 -0.2617265 -0.00015046672 -0.50893277 -0.027150715 -0.22225451 0.25552028 -0.015838627 0.20431778 -0.030332047 -0.29893267 -0.0861476 0.20827006 0.2966728 0.14623289 -0.08764646 0.062258124 -0.02242031 -0.0616973 -0.1221751 0.19011864 0.28463835 0.07590268 0.099349685 0.085898414 0.03573156 0.045113247 -0.021557333 -0.14088242 0.037099946 -0.054694057 -0.07761081 0.31345958 -0.1380008 -0.06037271 -0.11652561 -0.21434364 -0.074364886 -0.08945629 0.2772921 -0.06736784 0.40494856 0.1748024 0.10481937 -0.31245652 -0.09107679 0.21409765 0.00042275264 -0.0038510608 0.03964286 -0.14765966 -0.08275618 3.1737407e-05 -0.06081094 -0.08394696 -0.18308869 0.079475485 0.21118271 -0.054807212 0.27916697 -0.10773138 -0.07139351 0.027288193 -0.29461285 -0.10136446 0.15764585 -0.10194323 0.18465792 0.11072828 -0.28811044
100101 -0.2968384 0.29109764 0.16824247 -0.19668375 0.18870008 -0.18455221 0.040280677 -0.07258048 -0.16690722 -0.3196595 -0.15280879 0.047746725 0.015097604 0.17308564 -0.24850506 0.039024144 -0.13428128 0.01300929 0.37815022 -0.022390794 0.021244803 -0.4223261 0.17223215 0.117980205 -0.14759319 0.07791985 0.06773876 0.30316323 0.17526612 -0.07121034 -0.20857598 -0.123427086 -0.040679313 0.19978723 0.059375364 -0.10391037 0.018928975 0.20926653 -0.105246924 0.6628384 0.16239212 0.12485883 -0.0005532527 0.01486835 0.05254146 -0.3406478 -0.19327629 -0.22883496 0.022579202 -0.21668327 -0.35459352 -0.10584915 -0.15756883 -0.11871694 -0.08835564 -0.021212863 -0.13894884 -0.030987168 0.14803877 -0.04503996 0.47430092 -0.16801947 -0.24860404 -0.15311687 -0.047967996 -0.015441578 0.023794496 -0.1126986 -0.15758313 -0.11559311 -0.00010374115 0.18591045 -0.037850697 -0.24323255 0.1764033 -0.0024100551 -0.28090978 0.11119931 -0.05846401 0.25025776 0.29888988 0.13258675 -0.09949953 0.0494739 0.30558562 0.4114201 0.130506 -0.12896462 0.001634271 -0.1492343 -0.09399242 0.15619871 0.13967723 -0.11180757 -0.0526641 -0.3026357 -0.08623344 -0.06907514 0.043213665 -0.05535519 -0.15757294 -0.10644906 -0.102516785 -0.10871732 -0.05908972 0.012680948 0.024161171 -0.26984125 0.061709296 0.11643711 -0.061565142 -0.29262915 -0.029975945 -0.31662384 0.47454873 -0.08900236 -0.15283956 -0.05263255 -0.15207116 -0.04817199 0.0110557 0.06949613 0.045727335 -0.104974054 0.2939062 -0.08244588 0.23638956 -0.27852654
102225 0.27416345 0.31840736 0.06992132 0.13235714 0.14952156 0.15463641 -0.0128976675 0.071185015 0.0031194238 -0.13236663 0.22817205 -0.1047021 -0.028627647 -0.3498982 -0.2965613 0.22669359 0.19331838 0.087628275 -0.055696957 -0.109676406 0.0980443 -0.08054137 0.031416886 0.16431713 -0.030604498 -0.044332314 -0.36414075 0.16404143 0.039145608 0.09462037 -0.1642511 -0.15293664 -0.05864759 0.04289261 0.31093898 -0.09796382 0.05346186 -0.12614158 -0.12050541 -0.010759168 0.1844368 0.19121 -0.008764824 -0.006564074 0.21439257 -0.05480565 0.06816361 0.03742863 0.15126939 -0.023332482 -0.08193541 -0.20249128 -0.01263727 0.19519429 -0.17159523 -0.13880444 -0.0342855 0.05036682 0.08531041 0.14414017 0.18327242 -0.23923081 -0.13368058 0.18428999 0.048172407 -0.0339748 -0.20050982 -0.05671575 -0.13715202 0.114687614 0.03489647 0.24218762 0.031295743 0.0030133254 0.09558002 -0.046605196 -0.075587146 -0.17591515 -0.12580577 -0.14328973 0.04376434 0.03504683 0.091666915 -0.1938783 0.06143299 -0.02834026 -0.2419524 -0.12996529 -0.05394559 -0.14575031 0.13712646 0.15489538 0.12574364 -0.35947204 0.14031717 -0.038230963 0.061219532 0.17604299 0.038730137 0.016752947 -0.09059015 -0.083719306 0.102950685 0.0006955451 -0.24045298 -0.20774435 -0.342409 0.0038689803 -0.11772451 0.120024 0.067652196 -0.012911311 0.09753744 -0.061300874 -0.06285194 -0.05297996 0.059159547 -0.20671928 -0.036894135 -0.10181557 0.17898466 0.0060586217 0.013969764 0.008458326 0.014851615 0.019913634 0.09220045 0.028822284
96941 0.26277074 0.17248347 -0.16372207 -0.049634792 0.07769737 -0.011310331 0.16330618 0.072266564 0.093819834 -0.11869601 0.11434994 -0.11709446 0.012018489 -0.12967698 -0.3297198 0.27501 0.09202832 0.024433747 -0.2819824 -0.17751761 0.17535989 -0.27072996 0.13601725 0.056431655 -0.061548248 -0.31259683 -0.14851423 0.0011793997 0.010172338 -0.007778047 -0.120284475 -0.20499425 0.10183614 0.18179904 0.39804763 -0.032228686 0.39208353 -0.06519495 0.17988299 -0.041208122 0.3335047 -0.066279165 -0.04493807 0.090891555 0.05668323 -0.07638447 -0.05258214 0.070547506 0.03535491 -0.024161454 -0.11064421 -0.13255648 -0.263432 0.27116886 -0.08211016 0.13771157 -0.14688927 0.1888359 -0.009207259 -0.0338084 -0.107028805 0.10308655 -0.043998715 0.077247925 -0.03320291 -0.10603239 -0.010709546 0.05340937 0.11307122 0.048021503 0.014376171 0.21508645 0.049342293 -0.07682376 0.056021377 -0.038087696 -0.024222907 -0.2913346 0.017360426 -0.03511477 -0.14826947 -0.058681916 -0.11520464 -0.15617533 0.053681318 -0.10812139 -0.13176607 0.026925629 -0.0076654707 -0.18588187 0.006012245 -0.0764071 0.065756895 -0.2545193 0.029596895 -0.08157789 -0.096811704 0.27664977 0.0059902407 0.14948972 -0.085444964 -0.081950426 0.17421089 0.120537974 -0.065680385 0.07590574 -0.19100724 0.13684553 0.042047005 0.063339174 0.045695595 0.024239479 0.06379591 0.029654775 0.17655958 -0.22672603 0.110343605 -0.30769238 0.056368656 -0.03744443 0.118166074 0.038439866 -0.019555207 -0.20491041 0.25231257 -0.094699614 0.0942186 0.20907936
91252 -0.045612182 0.14128144 -0.2320165 -0.13289545 0.31906992 -0.1375933 -0.0459856 -0.14581938 -0.14469083 -0.24112058 0.011766354 -0.10924105 -0.16162094 0.4938111 0.055704173 0.12464689 -0.045328062 0.38819224 -0.009626732 0.13787498 -0.1679914 -0.10335544 0.3034559 0.2672637 -0.031109434 0.1016207 -0.30671677 0.14987914 0.0997113 -0.031213567 0.042073537 -0.3310949 0.08037582 0.28291062 0.12603499 0.111981474 -0.0694811 0.10091055 0.025463782 -0.41400647 0.16421743 -0.26453188 -0.100457095 0.15816748 0.09983931 0.16875657 0.13209374 -0.0945869 -0.072419554 -0.1304977 -0.056731705 -0.03837521 -0.25121862 -0.19832458 -0.035756163 0.10068656 -0.033295147 0.049427167 -0.029355617 -0.09309824 -0.10147674 0.06607837 -0.49913007 0.07432644 -0.10468106 0.17425421 0.432119 -0.15573281 0.16075692 0.19660573 0.16939008 -0.049045805 0.19474608 -0.2279922 -0.054272924 0.0005149994 -0.3986501 0.33787373 0.086313985 -0.07554299 -0.031222075 -0.009226441 0.094469205 0.11109342 0.084106505 0.21214947 -0.14673395 -0.103657424 -0.054707 -0.10414936 -0.08928542 -0.115454204 -0.14656498 -0.226223 -0.03757897 -0.25134712 0.02221345 0.096878305 -0.040920053 0.28737944 0.00754429 0.122833215 -0.17080797 0.015803523 -0.12593383 0.06959089 -0.1890187 -0.33740455 -0.12543218 -0.12166658 -0.27717924 0.31467867 -0.10447642 -0.32417947 0.11662462 -0.026237777 0.15452039 0.013532918 0.08512632 -0.23471001 0.227937 0.23820052 -0.027800808 -0.24552108 0.1503871 -0.0022325844 0.11610962 -0.46626207
91078 0.10066887 0.34373873 -0.35526484 -0.2840301 0.17423226 -0.04083069 0.08952752 0.13178636 -0.18038066 -0.09259369 0.15975784 -0.21442531 -0.11798612 0.04017656 -0.28399312 -0.21798703 0.03176251 0.08071823 0.1538063 -0.017990228 -0.16800977 0.031028504 -0.058591027 0.055027124 -0.05884304 -0.114127465 -0.2917681 0.083320916 0.067842826 0.028198816 -0.03902926 0.006034813 0.12490791 -0.123220764 0.25503635 -0.20827448 -0.05883756 0.23206823 0.112156816 0.34626803 0.2766757 0.05944867 0.10336915 -0.002387093 0.13533637 -0.14376721 -0.030223347 -0.11375346 0.030206453 0.12476463 -0.0763182 0.26559812 -0.15414025 0.16545892 -0.4318235 -0.024463532 0.11010987 -0.10061687 -0.05732396 0.0172587 0.14033382 -0.14563094 -0.4808064 0.08878733 0.027217569 0.18194216 -0.06410729 0.17457014 0.03761984 -0.109776944 0.160356 -0.025539549 0.00346763 -0.012368123 0.31026423 0.16198426 -0.059398018 -0.2875258 -0.0029157992 -0.010623693 -0.115607016 0.055294458 -0.031472746 -0.025022214 0.3273786 -0.08151688 -0.13418864 0.025229761 -0.0838913 -0.11553442 0.2363268 -0.058623746 -0.06866583 -0.30032483 0.23314402 0.03413748 -0.060538366 0.40558124 0.13327257 0.13489869 -0.09233327 0.07702515 -0.108761825 0.03973271 -0.047314018 0.039457068 -0.0031985445 0.03064185 -0.05356666 0.120444864 0.060452137 0.10823117 -0.08556049 -0.10194013 0.13619407 0.06465731 0.13606358 -0.13990536 -0.23796551 -0.26152357 0.22763094 0.25306213 0.091985844 0.0011955303 -0.02849582 -0.14044698 -0.38445503 0.100263156
72007 0.22621047 0.2037749 -0.22216904 0.1393212 0.41662455 -0.20154487 0.056593332 -0.297407 -0.30015862 -0.15021782 0.25827944 -0.14327407 0.12901537 0.032277815 -0.25811127 0.26886922 -0.18181758 0.2920167 0.026472485 -0.1656633 0.15809049 -0.23158494 0.30064526 0.21506399 0.07822145 -0.17595926 0.10207769 0.092649594 0.042240836 -0.04556601 0.0046615764 0.075932525 -0.18114716 0.19338523 0.3445425 -0.15231463 -0.0011952653 -0.183264 0.12687346 0.11682445 -0.019508447 0.17630088 0.10388663 -0.07559547 0.18693456 0.033572532 0.19524018 -0.038702767 -0.19948265 -0.2624633 0.12004147 -0.33331007 0.03367454 -0.37213588 -0.23067068 -0.2175503 0.031424966 0.05689129 -0.06883616 0.023069087 0.3680817 0.054787952 0.13256834 0.029697873 -0.045003742 0.008681187 -0.044933386 -0.15499575 -0.09401146 -0.18043818 0.034017265 0.002913644 0.2759832 -0.13165985 0.1728481 -0.20740251 -0.19334047 -0.08036629 -0.048537113 -0.005977169 -0.040218826 -0.0065770894 0.253789 -0.045665387 0.12059238 -0.33473757 -0.06784376 -0.007170962 0.061029904 -0.34324536 0.16254546 0.01516946 0.09155733 0.04079382 -0.047321636 -0.023526983 -0.033531453 0.10576359 -0.082803585 0.13817236 0.090619266 -0.11731602 0.1357072 -0.07611509 0.119392395 0.060372837 -0.30157092 0.24821034 0.13039678 0.0011443978 -0.122699305 0.25097522 0.08038772 -0.12800407 0.17602548 -0.10240208 -0.0036005287 -0.2927357 -0.083700046 -0.10152937 -0.04787856 0.3595138 -0.034918655 -0.0660088 0.30729955 0.026181653 0.04504474 0.028419262
98768 0.06610228 0.093790956 -0.27542892 -0.38178924 -0.16191688 -0.027224218 -0.04348755 0.030662064 0.3535213 -0.36408332 0.008928696 -0.2213593 0.05601033 -0.2181716 -0.058422774 -0.23623377 -0.16422091 0.13601255 0.026420861 -0.0127597945 0.13242851 -0.34417406 -0.08192921 0.19865012 -0.13440828 -0.01510409 -0.4218067 -0.11976696 0.07766524 0.20340595 0.022876717 -0.33531013 -0.19371518 -0.024413602 0.26565984 0.13180049 0.046149272 -0.011353786 -0.05679339 -0.026035635 0.13511513 0.3522469 -0.16525172 -0.07020851 0.014397175 0.12876476 -0.010465031 0.111909546 -0.110568576 -0.06892729 -0.30193734 0.18358175 0.021759931 -0.006446942 0.041174643 -0.05459016 -0.05042216 -0.2720662 0.09460156 0.060541358 0.010684053 -0.65335983 -0.09687419 -0.111888565 0.27882627 0.0130426455 0.14085248 0.007573338 -0.46058258 -0.07772309 0.22418375 0.21058194 0.037183635 -0.13303153 -0.005076345 0.044138942 0.06824837 -0.18693948 0.27878693 0.14391805 0.124534 -0.027430667 0.043899905 -0.0008077392 -0.020561341 0.03567902 -0.19525066 0.20024532 -0.06764838 0.11432625 0.30212578 -0.11338678 -0.007232475 0.030732293 -0.2685827 -0.20434743 -0.19367921 0.32760623 0.0053092404 0.35883066 0.13316469 0.2654443 -0.12498059 -0.055998184 0.09597911 0.05073673 -0.039144747 0.049931753 -0.0712448 0.020499265 -0.06251624 -0.21015187 -0.15580532 -0.14950073 0.02952201 0.16510816 -0.13707012 0.2636957 -0.16515939 -0.15900685 0.017207878 -0.17910247 -0.2437191 0.107865125 -0.11586407 0.15317288 0.09532413 -0.2556353
94822 0.23931316 0.02579454 -0.19656706 -0.10148799 -0.105735414 0.13558339 0.16760623 -0.103652574 0.19244015 0.19740327 0.27629337 0.08683952 -0.11596162 0.22061113 -0.12920712 0.59754086 -0.049660627 -0.055124108 0.04597418 -0.13293731 0.105950765 -0.13079372 0.24865307 0.2182429 0.12128263 0.2741672 0.11571608 0.09935908 -0.21538892 0.082045086 0.071397044 -0.44180557 0.011993765 -0.09027344 0.30119014 -0.16127121 -0.17819849 0.019036379 -0.17725883 -0.20516193 0.33722764 0.19013062 0.17361867 0.29876596 0.13820496 -0.035426963 0.12893666 0.4407912 -0.03665368 0.10504383 -0.013391045 -0.1516036 -0.21505512 -0.35169938 -0.06187876 -0.074152976 -0.08184204 -0.15020381 0.11552345 -0.13226104 0.16535465 -0.12446317 0.13181582 -0.08386374 0.22856823 0.12982647 0.2674115 -0.06309765 -0.3480239 -0.23464613 -0.28382236 0.02804911 0.13284445 -0.3073797 0.13492817 0.2198002 0.08511677 0.34785646 0.028801262 -0.20103374 0.25157097 0.28089845 0.029842684 -0.33440146 -0.08550461 0.17143136 0.11195159 0.1060169 -0.10988154 -0.26121846 -0.12222243 0.18286385 -0.16739349 0.05269434 -0.088940464 -0.17270595 0.46845147 0.0736204 -0.37015006 0.17122822 -0.21995074 -0.12285156 0.13713689 0.17352012 -0.21279304 0.110533655 -0.14248891 0.012770676 0.12371532 0.13821669 -0.23584388 0.36801118 0.037236966 -0.30836523 -0.35219988 0.13068832 -0.032571714 -0.15148968 -0.19187596 -0.22622482 0.12957172 -0.29652777 -0.11060681 0.23964085 -0.16783132 0.001186314 -0.08515183 0.22922905
102743 0.0656303 -0.060534835 -0.0195921 -0.42308435 0.0017293061 -0.048008997 0.014407477 0.35992536 0.4919085 -0.12848178 -0.017929727 -0.22366205 0.2804027 0.17636184 -0.2681883 -0.10779855 0.03372387 -0.1433134 0.15557306 0.17116009 0.5312306 -0.03047602 0.43795872 0.20563434 0.09137154 0.27276134 -0.09441149 0.2090265 0.39621326 -0.22001089 0.056242917 -0.3825451 0.16357937 0.018280158 0.06085963 -0.1839925 0.4012806 -0.08887738 -0.11372892 -0.35940495 0.32016435 0.09726161 -0.05067862 0.055292074 0.27730915 -0.021916559 0.022202948 -0.20278186 -0.1017637 0.243783 -0.26929587 -0.26308188 -0.18912998 0.03814183 -0.17625982 0.15329279 -0.05634672 0.26549962 -0.07842254 -0.0583023 0.24216752 -0.26647818 -0.09812447 0.3371752 0.14421654 -0.0067394236 0.047944833 -0.4659969 -0.054512445 -0.26156375 0.026219925 0.08713541 0.086266086 0.11439776 0.018257434 0.29029152 0.11341249 -0.1887971 0.3261046 0.05466444 -0.21233298 0.040458158 -0.10658975 -0.09993194 0.012819047 0.021693308 -0.13779494 -0.061461985 0.14926973 -0.36144865 -0.20149173 0.21178548 0.09182596 -0.054991674 -0.012120863 -0.22163959 0.09616347 0.042645063 -0.49351725 -0.11572832 0.14320135 -0.12607212 -0.19782005 -0.008425137 0.24249688 -0.14633855 0.046749104 0.34946516 0.26165774 0.26086834 -0.32024607 0.013398764 0.060515754 -0.08523204 0.20231068 0.08067402 0.015011209 -0.18991278 0.031377736 -0.23838624 0.07822319 -0.34931156 -0.033397432 0.41101506 0.08918064 0.18050244 0.102742456 -0.270004
92332 -0.057484526 0.0104043605 -0.07468385 -0.0030745638 0.033404823 0.06459862 0.15133524 0.006964836 0.15543483 -0.09578599 0.30831552 0.28334495 -0.040612698 0.061832756 0.0072588394 0.19012567 0.035029095 0.30691224 -0.11327156 -0.15938544 0.023664499 -0.49225512 0.12804107 -0.07652408 -0.018413097 -0.26283777 0.061071493 0.0029437814 -0.10524251 0.113850646 -0.1815022 -0.013434863 0.041038364 0.22729181 0.51769394 -0.19148895 0.3613216 -0.4476804 0.005754604 0.21635684 0.26062867 -0.079144605 0.050490826 -0.3065559 0.2454384 -0.3042997 -0.1579849 -0.14261273 0.25292146 -0.10747471 -0.1733263 -0.09296804 -0.034230344 -0.25304806 -0.21064948 -0.020255236 0.08318404 0.16097818 0.081668295 0.058390968 0.1551387 -0.13015877 0.01977572 0.06009267 0.09990344 0.11972879 -0.22194713 -0.09581028 -0.09768328 0.09086727 -0.10430616 0.09876371 -0.12782128 -0.07659299 -0.2675396 0.30224475 -0.10617355 -0.15200354 -0.003919508 -0.13940895 -0.14659497 -0.058080837 0.011237431 -0.15565832 0.15679787 -0.20105861 -0.2348966 0.03174921 -0.44163278 -0.0017177504 0.014309552 0.19530539 0.040002663 -0.27046832 0.19105217 -0.05148184 -0.20865905 0.20013343 0.06834178 -0.08179182 -0.17920163 0.10969321 0.09778599 -0.09683571 0.010116567 0.022491157 -0.091334105 -0.18810359 0.1457624 0.021781208 0.0030457948 -0.12789015 0.11855709 0.15390751 0.08350189 0.023187466 0.14475194 -0.105143726 0.06792349 -0.38782477 -0.1538585 -0.0056607765 0.17394517 0.07395562 0.2548106 0.1895137 0.033051614 0.27789116
102223 0.26677033 0.13154258 0.17347337 -0.11959682 -0.20425776 0.32521972 0.1790701 -0.15930511 -0.010380506 -0.05366703 0.04173345 -0.123751864 0.03374843 -0.32937986 -0.10506008 0.2506924 -0.05106967 0.07320211 0.27412093 -0.20101333 0.084720284 -0.18656656 0.056802068 -0.14514656 -0.30304828 -0.14558354 -0.34356856 0.3815608 0.087451905 -0.04899175 -0.054910693 -0.07713349 -0.31475574 0.04878619 0.45366257 -0.21751726 -0.08000322 -0.1997411 -0.12574972 0.1469836 0.23340234 0.15870507 -0.1551428 -0.14307775 0.23192583 -0.15099233 0.16693082 0.027028903 -0.02857729 0.23560037 -0.15008467 0.1570122 -0.1610909 0.06975465 -0.17588857 -0.3341819 -0.006469998 0.07677778 0.08796566 0.1438528 0.1456726 -0.1868376 -0.25316733 0.0026227413 0.20673366 -0.048639327 -0.34741595 -0.052521355 -0.107813545 -0.084404126 0.12023161 -0.110327736 0.062053554 0.11112674 -0.003876825 0.060939435 -0.20466802 -0.12499679 0.13369536 -0.08248137 -0.002636237 -0.087024465 -0.19578984 -0.18268995 0.06927851 0.06610641 -0.1316155 -0.07227604 -0.1107864 -0.10183895 0.23454538 -0.02599506 0.026215991 -0.16749547 -0.14191344 0.09467567 0.035445467 0.04641328 -0.019707626 -0.2191768 -0.07006662 0.060224693 -0.18087777 0.14792314 -0.059494723 -0.13805538 -0.16046856 0.10104392 0.06797264 0.15895426 0.060619622 0.059109475 0.01438037 -0.06672305 0.0003232211 -0.32970148 0.13906465 -0.095754445 -0.113449745 -0.15909052 -0.07974935 -0.052935943 -0.23042683 0.060720332 -0.0398272 0.1305771 -0.0015782365 0.23888521
101476 0.027823033 0.013035476 -0.039879624 -0.31603593 0.17944595 -0.073439315 0.17708574 -0.03814922 -0.07491408 -0.07762382 0.0633933 -0.029894415 0.034514554 0.17648491 -0.21792996 -0.17887522 -0.16342875 0.02265102 0.044667598 0.102801226 0.121408455 -0.09772057 0.016299514 -0.033616893 0.3091526 -0.22170514 -0.17557448 0.1366243 0.038052898 0.20741673 -0.19265099 -0.20061705 -0.17975028 0.38013324 0.08059614 0.13371442 0.058727454 0.015366289 0.12600632 -0.18960351 -0.2514954 -0.117551334 -0.17340577 0.20427379 -0.040391743 -0.21859361 0.12551188 0.27532008 -0.26445013 -0.104901455 0.08955062 0.22296365 -0.25458315 -0.10296146 -0.05825471 -0.010523133 -0.13366766 0.028901683 -0.21252503 -0.2942531 0.2802708 -0.082699805 -0.35680947 -0.14012234 0.038705282 0.21459156 0.14767031 -0.100802645 0.12207798 0.07843834 0.06637707 0.0033564465 0.035873484 -0.08926331 -0.0074873473 0.064435005 -0.11984798 -0.26304594 0.446934 -0.0061761914 -0.13094833 -0.10258606 0.021261813 -0.09343433 0.0009458146 0.115567096 -0.09962181 0.1449686 -0.21624999 0.119055554 0.098881565 0.054769125 -0.09893568 -0.46514863 -0.0694855 -0.4076537 -0.12290646 0.2342018 -0.018302018 0.2603856 -0.021388048 -0.107882395 -0.180187 -0.073017165 0.15884711 0.07505471 -0.31294844 -0.28662068 0.18591781 -0.05035975 -0.00312664 -0.24670202 0.0474524 -0.0015358602 0.004435049 0.1333075 0.30634135 -0.3613636 -0.27699497 -0.097468 -0.1617908 -0.1841566 -0.15269193 -0.07962616 0.06902067 0.04633401 -0.12224308 -0.21465118
100641 -0.058526985 0.11462877 0.004218503 -0.24033545 0.044804253 -0.12597145 0.015324697 0.11158593 0.04673837 -0.08831904 0.42593914 -0.14847778 0.08290912 0.16246764 -0.4435516 0.17352422 -0.03818951 -0.18688387 0.1707698 0.0874918 0.03665183 0.016719086 0.34606907 0.099149495 0.06003858 -0.07921858 -0.17936066 -0.09363421 -0.040374763 0.10893481 -0.36292395 -0.24395144 0.15692063 0.05977701 0.13092269 -0.047535278 0.047082193 -0.064583115 -0.052711807 0.253416 -0.10232087 0.23590165 -0.03648019 -0.13300644 0.07837263 -0.01829839 -0.06856414 0.0046762684 -0.21979363 0.042961914 -0.0888494 -0.17412873 -0.42493296 0.22122137 -0.352886 0.017231794 0.011019861 0.22368968 -0.0036653758 0.052832413 0.24874318 0.07220914 -0.25606632 0.20575255 -0.019515779 0.10561818 -0.035568994 -0.17719758 0.1899034 -0.07603257 -0.22742212 -0.020146012 -0.19081822 0.1725519 0.08875058 -0.07248342 -0.37045053 -0.16982879 0.3070782 -0.12157008 0.13707949 -0.04134 0.09404338 0.06174823 0.002851427 -0.12088813 -0.25237253 -0.004181887 -0.092580974 -0.14240402 0.19478093 -0.10467165 -0.087079495 -0.11680821 -0.026822988 -0.24851069 -0.006678877 0.038149733 -0.07111291 -0.08771046 -0.05479917 0.050531268 -0.20141304 -0.19239818 0.099263564 0.08971153 -0.36875656 0.024679169 0.18990877 0.2185872 0.23919776 0.2998188 -0.17980994 -0.004889364 0.016606605 -0.18168695 0.22538912 -0.12013778 -0.2291257 -0.044908058 -0.042983938 -0.008643043 -0.03385294 0.032261044 -0.13867779 -0.18208845 0.12954463 0.15735479
85154 0.029262107 0.46673217 -0.06124386 -0.015727794 -0.05085172 -0.10600311 0.13487856 0.07270786 0.23660532 -0.36392823 -0.27143395 -0.33750695 0.0052383086 0.15569526 -0.3701106 -0.11527943 -0.3631256 -0.005052796 -0.16897222 -0.10867377 0.0606324 -0.06904299 0.20294842 0.16050057 -0.15470187 -0.17046097 -0.30949613 0.07697771 -0.04036164 0.17346132 -0.14949255 0.08596135 -0.2878295 0.086237736 0.10073841 -0.28406945 0.15859967 0.07929725 -0.2131814 -0.13465285 0.3290304 0.010817621 -0.034568246 -0.03452545 0.2646796 0.11154038 0.2891912 0.052227505 0.11492968 0.052566823 -0.2517922 0.05196303 0.01721811 -0.2113042 0.23005722 -0.106465615 -0.004095118 0.2246874 0.12193691 -0.04063924 -0.19664377 -0.12994291 -0.06376673 0.1752371 0.008470284 -0.07927619 0.38046297 0.087106176 0.14335075 -0.13684528 -0.06160252 0.039414514 -0.109449975 -0.16291954 0.08613805 0.02878068 -0.291867 -0.064724155 -0.12691788 0.0306884 -0.20020613 0.091345325 0.08277996 0.047609225 0.14990589 0.37862206 -0.42881206 -0.15058568 -0.06846244 -0.17375553 -0.00223389 -0.228229 0.41299775 0.03310149 0.16651313 -0.3524528 0.0873905 0.12113834 -0.26315033 0.15506528 0.18683052 0.07192289 -0.10464321 -0.043624226 -0.1499859 -0.044925127 0.18174896 -0.20297858 -0.20679821 0.08819515 0.13584784 0.35220084 -0.2625969 -0.17211057 0.18317504 -0.143866 0.07340143 -0.2003436 -0.12722902 0.13434574 0.29815155 -0.16254833 0.14959417 0.1598987 0.08122426 0.035041723 0.04521721 -0.16534239
102227 -0.22027788 0.37628683 -0.33134568 -0.129196 -0.07796568 0.1169583 0.040493377 0.34310958 -0.15880285 0.01944472 0.02470511 -0.12053892 0.30662537 0.0036991935 -0.2998169 0.07756861 0.2849923 -0.030642 0.04888061 -0.001276233 0.30353343 0.20810093 0.15133372 0.124227725 0.11340361 -0.28221133 0.07309974 0.21506527 -0.41920173 -0.15650061 -0.15908527 -0.21796945 -0.2089362 -0.05105649 -0.011722422 -0.057339713 0.14121191 -0.10196966 0.23862766 0.2584193 0.14851871 0.14157704 -0.13207275 -0.011051434 0.37351975 -0.057146497 0.22425221 -0.29339752 -0.098390505 -0.035007425 -0.16188249 -0.1549152 0.035202105 -0.28771752 -0.06329236 -0.13373356 -0.08690098 0.15357333 0.18907975 0.029600034 0.16410175 0.10899818 -0.2816715 0.19989826 0.094515994 0.2650945 -0.024828441 -0.022439193 -0.05080418 -0.22593997 -0.24748659 -0.12074771 0.07787775 -0.14796679 0.17866553 -0.05284834 -0.16577476 -0.35729453 0.03983915 0.045749072 0.13416758 0.47763652 0.39800432 0.027974857 -0.09795858 0.056620132 -0.164761 -0.19138667 -0.12944438 -0.25378343 0.13504036 -0.24100505 0.007925118 -0.05328488 -0.27374664 -0.10061879 -0.12346613 0.40759417 -0.3467888 0.05341252 0.0629912 -0.08443709 0.01511645 0.29827532 -0.124057576 -0.2230647 -0.26020557 -0.21568188 -0.024750384 0.13219449 -0.07976893 0.04358618 0.12235947 -0.060241804 0.18702489 -0.17520069 0.21198075 -0.2003805 -0.07337243 -0.2695624 -0.1319433 0.27458188 0.065752394 -0.04728031 -0.053542122 0.03352576 -0.05984674 -0.12833552
73906 -0.20231342 -0.042499684 -0.23805827 -0.031285882 -0.07585614 0.019643942 -0.030566921 -0.10165427 0.07522131 -0.08571739 0.2165123 0.2079219 0.23685658 0.03958998 -0.25348467 0.19479808 0.122350544 0.27536896 0.08051035 -0.25370046 -0.09033243 0.024732742 0.31516322 0.025094962 0.05880327 0.08862775 -0.022107787 -0.011231198 -0.21874554 0.10483742 0.16835931 -0.1938857 -0.12701774 0.011952758 0.12190035 -0.19755252 0.01204499 0.039258916 -0.39303297 -0.019766187 0.66930896 -0.03198578 -0.064133435 -0.045319516 0.33990422 -0.22968458 0.16057926 0.027243232 -0.16592337 0.3422422 0.02257089 0.18105651 -0.28141657 -0.22975013 -0.2273576 -0.020007765 -0.27013332 -0.11872298 0.117762566 0.20052195 -0.2437119 0.12135616 0.2212392 0.079622254 -0.17599717 0.09791504 0.12539023 0.13619672 0.14627619 -0.07414617 -0.13785608 0.1299821 0.08113424 0.10617431 0.09549493 -0.13730985 -0.11668928 0.2146418 0.080411844 0.01636045 0.09990383 0.26359057 0.16263668 -0.040048756 -0.29573503 -0.17945506 -0.17021175 0.0759467 -0.4744756 -0.5027131 0.22066984 -0.17520104 -0.07495784 -0.039445095 -0.42873013 -0.3085752 0.15442875 0.4164207 -0.27781925 -0.028156321 -0.17797399 -0.10764914 -0.33383328 0.6808839 -0.13711737 -0.096236736 0.10574426 -0.39861327 -0.1655613 0.13628717 -0.08395941 0.2980291 -0.3225275 0.10140365 0.30316284 0.21132274 0.3934927 0.0039420454 -0.21798919 -0.36995196 0.09081523 0.08546824 0.30169713 -0.20321521 0.13423751 -0.12281502 0.08312646 0.021194605
101871 -0.06651974 0.48229986 -0.013003082 -0.1377093 -0.15896136 0.46341002 -0.046104684 0.013451058 0.24344212 -0.27042693 0.16591327 -0.040656596 0.07949416 -0.08764707 0.044588707 0.12565476 -0.24330422 0.12317308 0.12220093 -0.20415324 0.054738786 0.049789585 0.02113441 0.064450465 -0.24449849 -0.1049729 -0.31550986 0.075315334 0.062650114 0.2791443 -0.035765566 -0.084655344 0.037075307 0.20566452 0.057096697 -0.20551576 0.039747763 -0.039900973 -0.22359896 -0.062510125 0.019750059 0.02025977 -0.343418 -0.1274587 0.47931293 -0.20382944 -0.21438299 0.006931166 -0.114495076 0.1279364 -0.35129285 0.0053362558 -0.08780952 0.10045995 -0.05611195 0.06563863 -0.04574957 0.02985121 -0.0058494937 0.13258336 0.101657435 -0.58590305 -0.17257524 0.07896626 0.46730265 -0.07078873 0.04248598 -0.038352408 -0.1615635 -0.13969569 -0.1292933 0.20264968 -0.03618656 -0.14315516 -0.028022261 -0.11073234 -0.10016363 -0.093163244 0.07043284 0.1635777 0.016652698 0.22092074 0.028389985 0.10311049 -0.08058213 -0.18580912 -0.106962845 0.009847945 -0.17356445 0.028640864 -0.11700768 0.004194643 -0.11651031 0.07153235 -0.10417215 -0.12743725 0.17903481 0.26948926 0.21401334 0.12307693 -0.14174971 0.073902525 -0.25486585 -0.026050927 0.31570122 -0.03346803 -0.108124636 -0.041755065 -0.15196145 0.11769425 0.06736567 0.103869714 0.0833098 -0.0229912 -0.09034082 -0.043380614 0.06968447 0.11773071 0.06569661 -0.26575035 0.01561964 0.1470644 -0.1522508 0.21399727 -0.22393546 0.38383436 0.065517314 -0.030901209
101093 -0.08721552 -0.034498155 -0.092647195 -0.10310331 0.27100497 -0.008942824 0.043237705 -0.23800859 0.1189177 0.112669945 0.010305097 0.10799469 -0.37278596 0.24160497 -0.29740837 0.0389552 -0.14122383 -0.00047455163 -0.043605167 0.016155947 0.10842041 0.2358957 0.17304626 -0.010842301 0.27985016 -0.09224323 0.14779657 0.35332826 -0.0069597275 0.11709413 -0.10779506 -0.0085030645 0.051665734 0.11082923 0.29025057 0.27910182 0.041768014 0.11952318 -0.107868694 -0.23371632 0.038781215 0.10278842 -0.010932483 -0.20325747 0.120225124 -0.26040566 -0.0009185345 0.3804391 0.07292014 0.027010977 0.14465573 -0.36535 -0.24823569 -0.12631993 -0.19119395 0.014671057 -0.06290369 -0.2648959 0.28439125 0.24600528 0.46399578 0.17547818 -0.161496 -0.08374705 -0.1452478 0.09383005 0.343998 -0.1170452 0.10917135 -0.020403413 -0.11651463 0.14487961 0.034365993 -0.043087196 0.17562367 -0.035239507 -0.36971664 -0.17065218 -0.3055096 -0.12085149 -0.1199963 0.13226174 -0.03346284 -0.08663283 0.20548698 -0.26560435 -0.10558472 -0.13655373 -0.037654713 -0.25882503 0.19192602 0.008093654 -0.07671805 -0.19278452 -0.10570317 -0.5932578 0.07886164 0.086351015 -0.16308156 -0.04445265 -0.027336573 0.02664771 0.1920651 0.058567435 -0.2661755 -0.07602211 -0.27499878 0.058605876 0.13122648 -0.41110215 -0.036668766 -0.2665035 -0.008201887 -0.24364579 -0.17417134 -0.0585119 0.12879549 -0.12857139 -0.24382356 -0.31198603 0.06286084 -0.07101317 0.12574628 0.17839228 0.14347893 0.0541599 0.051574238 0.026105834
66856 -0.08610503 0.37253904 -0.05923455 0.013961325 0.22979283 0.04675205 -0.1375147 0.13231303 0.3536568 -0.41778028 -0.0780037 -0.08981141 -0.13891593 -0.20689331 -0.4921726 0.040662013 0.058121033 0.027643409 0.010354505 0.2772517 0.240772 -0.11574544 -0.16443855 -0.2520552 0.25109985 -0.15157412 -0.1415895 -3.674993e-05 -0.06495832 0.01966901 -0.24801502 0.10743581 -0.26743713 0.17093536 0.044290073 0.018040845 0.0325906 0.020048788 -0.08224193 0.23809479 -0.040591463 -0.10418891 -0.10053014 -0.0628454 0.11751724 -0.15526474 -0.029225312 0.18501535 -0.09061311 0.09027277 0.0026171126 -0.19286962 -0.41741893 0.17839046 0.21019924 -0.02333528 0.09203696 -0.026921382 0.08663309 -0.06739451 0.32977605 -0.440597 -0.7730526 0.00881766 0.014903175 0.010517722 0.084010236 0.24600989 -0.012672617 -0.100517415 0.118113965 0.14128901 0.40489852 -0.11217063 0.043894403 -0.061563034 -0.05237203 -0.11852597 0.18131864 -0.04449931 -0.20860377 0.054673005 0.04888844 0.26570037 0.13270915 -0.04038707 -0.27175787 0.06559956 -0.09733462 -0.2129918 -0.13057625 -0.035301 -0.10030792 -0.062625654 -0.030362206 0.0805988 0.17105253 0.2573174 -0.06429979 0.48292947 -0.072361015 0.18569359 -0.33045644 0.06819628 0.11952694 0.18173367 -0.041564588 -0.026818074 -0.0509636 0.15452595 0.10329823 0.05337639 -0.09456386 -0.022342749 0.10224106 0.33928156 0.2596067 -0.04938327 -0.035623066 -0.04664242 0.07382875 -0.28579164 -0.14665303 0.41743773 0.014278401 0.048542425 0.004358018 -0.3285509
75583 -0.15131128 0.32656232 -0.14190118 0.13009155 0.13267508 0.15540704 0.055846144 -0.118358016 -0.13115914 0.009579397 0.19932923 0.05933815 0.023541601 0.2070687 -0.27119213 -0.06217402 -0.28634092 0.34289843 0.16568556 0.103031866 -0.26579288 -0.1872605 0.19111958 -0.050511654 0.15149464 0.01218449 -0.08610071 -0.034284487 0.31836972 0.14217272 -0.046395022 -0.01832118 0.091066375 0.17774855 0.03019426 0.15780741 -0.14230561 -0.4274835 -0.07139787 0.12977786 0.21036135 0.049707357 0.113656275 -0.015150233 -0.0129306745 -0.36506557 -0.085722096 0.041719783 -0.12284376 -0.14014524 0.16135038 0.25061122 0.0059514465 0.11438719 -0.35199127 -0.07801058 0.12126703 -0.09112854 -0.09851929 -0.10068932 -0.03239732 0.097783566 0.0076174946 -0.15646192 -0.068039365 0.40039974 0.11453559 -0.041778933 -0.08875723 0.28513265 -0.085767925 0.020430468 0.2986042 -0.06700095 0.32684797 -0.06740096 0.14112914 -0.16540638 -0.12703282 -0.007609059 0.5285667 0.11998447 -0.0029979984 0.25908357 -0.10092149 -0.29866657 0.0450934 -0.046385158 -0.25018498 -0.087917954 0.25771117 0.070918925 -0.16073845 -0.1376352 -0.21884875 -0.4706148 -0.10782035 -0.11492842 -0.084171966 0.35126305 -0.08328054 0.07994733 -0.421641 0.013225558 -0.088453576 0.31741259 0.043569945 0.05812833 0.19494487 0.2967632 -0.6205852 0.38470748 -0.09290136 0.0790243 0.19951949 -0.082619734 0.107676715 0.022792567 -0.26942453 -0.10949653 0.23119263 0.5579255 -0.20660685 0.12633897 -0.006824036 0.42661446 0.033448543 0.07613157
71944 0.21950682 0.23291054 -0.07067383 -0.020933261 0.06262658 -0.33230203 -0.08025194 -0.42639935 0.2555462 -0.17805202 0.1674486 0.22807069 0.4124095 0.4271322 -0.32686374 -0.041184064 -0.34540027 0.20783849 0.15946159 0.12810923 -0.42347342 -0.32466546 0.50104743 0.0857786 -0.33682448 -0.039707832 0.26604235 0.1620631 0.08977774 0.19115609 -0.07546913 -0.20216398 -0.03801596 0.40968508 -0.19383398 -0.16927238 0.21919307 -0.17172512 0.0534879 0.18314733 -0.12945971 -0.19173124 0.12462037 -0.07967819 -0.10815946 -0.12820938 0.22095105 -0.031037936 0.18274382 -0.16392142 0.030779421 0.11415694 0.046093028 -0.15275669 -0.096506536 -0.30369392 0.15650617 -0.05377156 0.42673013 0.28852344 0.05050037 -0.39850435 0.077263966 -0.06379541 0.030062392 0.5451765 -0.5277876 0.4625077 0.00377409 -0.31753337 -0.13193068 0.105776876 -0.15241145 -0.20871496 0.015740728 -0.26769152 -0.12945686 0.41613203 -0.5036057 0.026397113 0.32975137 0.083061874 -0.22667043 -0.44319773 -0.061883282 0.09906008 -0.15762155 -0.28462663 -0.34299442 0.04474522 0.12401281 0.20310107 0.100924075 -0.017719949 0.025106218 -0.14812467 -0.1575213 -0.118040524 -0.13375509 0.06055909 -0.024704264 0.10880317 0.10856298 0.0027745985 0.05940269 0.0015096975 -0.2875512 0.032579307 -0.28481886 -0.25461188 0.014255665 0.05523319 0.08222235 0.13237022 0.068169594 -0.16827202 0.1631386 -0.0709503 -0.12723565 -0.10822169 0.19487953 0.26889163 -0.20713393 0.2780156 0.19234341 0.10305886 -0.047512323 0.033963814
76310 0.16806637 0.050845403 -0.068430945 -0.38859522 -0.07535364 0.16065153 0.2146048 0.008011042 0.41666692 0.008011482 0.24799085 0.05143718 0.012731971 -0.14560097 -0.15781704 0.15554248 -0.2008173 0.14535762 0.2417304 -0.18755083 0.1209974 -0.011381904 0.14526679 -0.061828885 -0.17838663 -0.18162896 0.067710884 0.048626818 -0.051950786 -0.021434512 -0.07139625 -0.24778168 -0.18223937 0.13176265 0.2519255 0.12661101 0.09837188 -0.070302896 -0.012152117 -0.052683536 -0.014051422 -0.19299725 -0.44846457 0.08283912 0.19279999 -0.2731139 -0.10408835 0.15899383 0.07185741 0.27985778 -0.39997092 0.3658345 -0.3142668 0.045798186 -0.026429066 -0.020383257 0.08304587 0.15414892 -0.06718254 0.022500599 0.55710983 -0.35450953 -0.029919736 -0.004354179 0.21049307 0.14940153 0.16636126 -0.008710756 -0.07954048 0.047995344 0.10019735 0.07877089 0.06937662 0.06716832 -0.06739922 0.05535725 0.107568644 0.024684722 0.06972539 -0.05304043 -0.18864197 0.18678224 0.1476269 -0.012799086 0.06918769 -0.077199794 -0.057610597 -0.22646675 -0.33500773 0.024762442 -0.036336806 -0.007723764 0.027357254 -0.30423567 0.13245253 -0.12124289 0.13952537 0.15716511 0.1393458 0.13393314 0.08053124 0.1322874 -0.13819985 -0.06332065 0.3235378 0.05757307 -0.2364863 0.019588482 0.18778957 0.19145654 0.1645418 0.05177322 0.02782159 0.24445717 0.21450067 -0.18537177 0.118513465 0.04846345 0.061631504 -0.37587756 -0.24151276 -0.03323601 -0.18710852 0.12617835 -0.14499898 0.108320974 0.045382243 0.15777802
102272 0.21507503 -0.039694358 -0.09909119 -0.13489829 0.3010493 0.27178425 0.33234417 -0.1532914 -0.07016685 0.29304418 0.12531835 0.034834046 0.36932892 -0.046342347 0.010497919 0.09961995 -0.420723 0.22844441 0.039588492 0.06414848 -0.1433813 -0.00873832 -0.0047991564 0.11197985 0.10308026 0.12975873 0.084342666 0.14851451 0.04508615 0.066879 0.04065559 0.084072106 -0.058680326 0.15599808 0.18212014 0.03453256 -0.16895804 -0.23590863 0.24752966 0.010652045 0.2669619 0.07863748 0.2952591 -0.23226468 -0.18774281 -0.481096 -0.18423787 0.0011192632 -0.16820902 0.39511523 0.36963958 0.047665138 -0.17376031 -0.108269125 0.03665654 0.026299195 0.009253979 -0.1860281 0.29359737 -0.048594777 0.053714313 -0.0065976344 -0.24860327 0.02182922 0.22152285 0.016033242 -0.086748764 0.4411125 -0.16011705 0.2012729 0.013678086 0.26346272 0.2640632 0.053101905 -0.04183925 -0.04423339 0.013754064 0.10076411 -0.0384664 0.014876676 0.44610208 -0.012663709 -0.18168744 -0.06721262 -0.11338135 0.1623202 -0.2449942 -0.021789169 -0.24563669 -0.14155652 0.46771374 -0.20205924 0.12466313 0.061527167 -0.18643557 -0.32572374 -0.08182875 -0.024994822 -0.18293755 0.11535476 -0.12373079 -0.08555675 -0.31284973 0.0820832 -0.18261431 0.14444812 -0.4003562 -0.19527285 -0.04738447 0.3172405 -0.49697715 0.3869587 -0.14360233 0.05995106 0.171093 -0.10063129 -0.14270577 0.06193923 0.009331489 -0.033833407 0.25941244 0.37125927 -0.3870494 0.24212886 0.092621334 0.30122167 -0.21808848 -0.2774483
80647 0.2206012 0.07558144 -0.24595271 -0.11082653 0.075744 0.17220788 0.06759866 -0.08310195 0.28605857 -0.24218915 -0.28643796 -0.035957187 0.011266352 0.083796665 -0.07115059 0.1345275 -0.31811383 -0.24286066 -0.15354708 0.2221826 0.37645346 -0.274011 -0.035410162 0.09095466 -0.20029475 -0.21002789 -0.19108813 0.027183475 0.027191885 -0.03138444 -0.17697056 -0.073246606 -0.29341638 0.19380441 0.3352796 -0.05471093 0.09534781 -0.13347107 -0.15666808 -0.069284946 0.39792618 -0.21234764 0.017009212 0.07869093 0.091975264 0.21936779 -0.17302796 0.065541215 0.11127792 0.10523565 -0.07181928 0.15637647 0.13288768 -0.057045598 0.010281454 0.1747301 -0.13064493 0.1469726 -0.008694461 0.115440406 -0.0685115 -0.18585497 -0.26798472 0.12839179 0.07802553 -0.0041619292 0.28499675 0.094818585 0.17221431 -0.29330423 -0.15358588 0.1387464 -0.04038419 -0.12803778 -0.12047576 0.3270771 -0.09442298 -0.15305501 -0.11391227 -0.08924744 -0.075108975 0.14461935 0.11582706 0.19442715 -0.10863511 0.12335583 -0.29160014 -0.016781043 0.06624889 -0.1834692 0.047554635 -0.06948279 0.18084085 -0.074331895 0.08395731 -0.30037057 0.29922155 -0.051559456 -0.101271756 0.20294604 0.21364018 0.25108323 -0.14451334 -0.29828882 -0.17917852 0.030431159 -0.19859529 0.06755285 -0.045051567 -0.089089856 -0.062066425 0.08311144 0.023368506 -0.11563054 -0.24756554 -0.07427984 0.2546684 -0.25034764 -0.095338225 -0.026726386 0.16011338 -0.1256815 0.15720764 0.16760089 0.15567297 0.2743652 0.14911695 -0.017835706
94735 0.2327801 0.10996877 -0.25365996 -0.26288858 0.15916102 0.13358872 0.20778084 -0.19027095 0.14152204 -0.032609906 -0.32433146 -0.15538897 -0.10267922 0.33480814 0.076865725 0.17629643 -0.3978161 0.1501175 0.0029964957 0.1902036 0.19924127 -0.16635129 0.07721364 0.18234096 0.061811857 -0.17749387 0.022645703 0.2274282 0.09831668 0.14681098 -0.0037234635 -0.042163413 -0.15829869 0.3813718 0.08164139 -0.039458238 0.14019346 0.04222992 0.0053899684 -0.06974802 0.09951614 -0.03876989 0.193316 0.15123011 0.014196948 -0.085403964 0.006705237 0.2549576 -0.07543058 -0.20977953 -0.0009264409 0.010189401 0.25174075 -0.18018922 -0.08730101 0.11902964 0.099327125 0.28794193 -0.13692962 -0.11604982 -0.05731576 -0.16272284 -0.16579296 0.087542266 0.06052085 -0.04138661 0.1471196 0.13496684 0.06197539 -0.037193317 -0.27602342 0.06515216 0.25435057 -0.13366483 -0.18085966 0.09135679 -0.18869807 -0.17992759 -0.32892758 -0.40553558 -0.07643295 0.045266464 -0.07691043 0.03264527 -0.14751232 0.1366085 -0.050842408 -0.06764129 -0.08708608 0.08337903 -0.15734093 0.03125106 -0.23322226 0.042022165 0.06871196 -0.38254586 0.06611379 0.051496632 -0.17452401 0.094764695 0.09971202 -0.2249711 0.027654573 0.1271503 0.023981754 0.014701228 -0.06749628 0.13878907 -0.07405104 -0.15540732 -0.099595174 0.048720516 -0.036333553 -0.31610173 -0.017163986 -0.19427559 0.38720676 0.079511605 -0.102818914 -0.16918814 0.22474633 -0.1436083 -0.1556032 -0.04744926 0.15384798 0.17302501 0.0231869 -0.21013714
85152 0.29830012 0.097652994 0.2733666 0.19793005 0.105786934 -0.3452241 -0.0015307311 -0.2999627 0.20770274 0.19064416 -0.10687307 -0.4373259 -0.062199216 0.22917257 0.073289104 0.19277593 -0.24935292 0.35671642 -0.04499563 0.02641278 0.09868193 -0.24053392 0.22952126 0.18226516 0.06985275 -0.113066524 -0.17988868 -0.18404506 -0.18349612 -0.09507821 -0.029996825 -0.36485606 -0.031182501 -0.044019114 0.25079075 -0.2728456 -0.03870187 -0.02136089 -0.121103406 -0.16069892 -0.08725491 -0.1498842 0.17364217 -0.047445636 0.14056477 -0.03482329 0.41672075 -0.17220768 0.31227872 -0.07921517 0.04192235 -0.081369765 -0.40717575 0.073729195 0.115287244 0.4246864 0.022778995 -0.02088582 -0.2570764 -0.1162678 0.17156559 0.21921892 -0.32428154 -0.054385427 0.16826479 0.073559985 0.6250373 -0.12531364 0.09193135 -0.24631338 0.047998767 0.31569088 0.044509932 -0.54285526 -0.007852066 0.2103363 -0.17414157 0.3267896 -0.11874182 0.044688053 -0.006225553 -0.06456354 -0.11112296 -0.043177206 0.33418918 0.46802193 -0.30080318 -0.13719009 -0.19822149 -0.05678369 0.102338806 -0.061411753 0.19976935 -0.23514165 -0.30395275 -0.20295404 0.08543766 0.12347635 -0.3581898 0.16537131 -0.19828062 -0.009484569 -0.1541062 -0.13454549 -0.030648518 0.09208798 0.10616384 -0.24265513 -0.20722987 -0.34579638 0.05779493 0.2755644 -0.33264315 -0.4285691 -0.24101283 -0.072354615 -0.20150705 -0.14121483 -0.28716648 -0.12663172 0.39135453 -0.15941036 -0.028561119 0.025940869 0.25306398 0.20132227 0.21033089 -0.370645
86228 0.18221949 0.29665887 -0.10403637 -0.25302514 0.34406206 0.11356481 0.19564937 0.21011083 -0.23486133 -0.10025318 -0.27335963 -0.36634678 -0.035534594 -0.31452128 -0.07255778 -0.13829514 -0.064381056 0.111030996 0.13625135 -0.13422939 -0.18308145 -0.15763234 -0.070824265 -0.085520536 -0.13329422 -0.21318947 -0.19609936 0.14305891 -0.34419957 0.021580618 0.051190976 0.05108309 -0.15647112 0.060778253 0.254824 -0.16196449 0.0155568225 0.01567669 0.08683436 0.11295843 0.25629777 -0.012766463 -0.0001681364 -0.084378846 0.19858374 -0.2727897 0.08501257 0.12588345 0.22410418 0.10101615 0.16864717 -0.14970782 -0.21416591 0.22315507 -0.25935525 -0.18564944 0.047500502 0.09552117 0.18417346 -0.09946023 0.0008290167 -0.27720663 -0.45286825 0.1665804 0.27360147 -0.013947246 -0.055693343 0.22922862 0.002918227 0.16693613 0.13211174 0.24336037 0.01533431 -0.16673443 0.29642415 -0.06130561 -0.23323773 -0.37754366 -0.011237138 0.06502139 -0.12701446 0.028371029 -0.21971533 -0.15407741 0.24360302 0.3092593 -0.056460887 -0.2908617 0.016734777 -0.15699929 0.032437764 -0.07223839 -0.025178611 -0.27724656 0.028723186 0.030125987 0.009359971 0.21824862 -0.09025057 0.10578979 -0.16896445 0.19843373 -0.14723192 0.04957386 -0.2281535 -0.04151612 -0.14083818 0.030610466 -0.014275183 0.15680823 0.0927082 0.02323602 -0.21111275 -0.30328414 0.06810524 0.24479386 0.20805603 -0.15609115 -0.032649994 0.07666153 0.13953677 -0.009573992 0.016032504 0.05022013 0.102860205 -0.020552788 -0.16478834 0.23465408
95350 -0.17641115 0.38380438 -0.36994112 -0.037403878 0.104808666 -0.13125606 0.021128077 -0.11129109 -0.064823695 -0.1775234 0.17237449 0.076402515 0.09424807 0.095903754 -0.6134396 0.065410204 0.055134714 -0.073630065 -0.30123723 0.21335813 -0.0752707 -0.0013881627 0.1694715 -0.031103889 -0.018023139 -0.28710383 0.082995854 0.044664923 -0.026145358 -0.12649196 0.13506907 -0.062180094 0.08913891 -0.05685088 0.15534508 -0.28085846 0.12354381 -0.015739093 0.3037173 0.09456049 -0.059011813 -0.010569151 0.20171647 -0.043635245 0.089489825 -0.011681783 0.17263454 -0.044675164 0.21411021 -0.30258626 -0.03749602 -0.120504886 -0.264314 -0.17261149 -0.29038575 0.33407927 0.013980245 0.20312038 0.08202231 -0.2619221 0.20347418 0.14738268 0.0683901 0.28508836 0.069519736 -0.005195261 0.26439017 -0.12016713 0.38078967 -0.11770778 0.27241662 0.19552873 0.019101907 -0.26859036 0.003004394 -0.19348298 -0.107681036 -0.16834658 0.23376554 0.15814915 -0.0109652635 0.025200022 -0.005583734 0.094885506 0.28443003 0.043634016 -0.27371314 0.13541307 0.07457728 -0.2728603 0.121203735 0.17570348 -0.29030967 -0.17746982 -0.18664727 -0.29540622 0.14206633 0.039106544 -0.21070683 -0.12851858 -0.03341675 -0.09139862 0.066057876 0.06030197 0.015614765 -0.22444668 -0.2911209 -0.07829818 -0.13215229 0.07644594 -0.1360369 -0.13278392 -0.32247147 -0.2466349 0.14651042 0.15428582 0.1730578 -0.26365414 -0.10036313 -0.14040759 -0.13408524 0.17492054 0.054107815 -0.02652908 0.12101824 -0.0016107318 0.115274265 -0.009980449
80818 0.19583231 0.1234256 -0.3128577 -0.02705569 0.01753894 0.12926151 0.13663402 0.027986152 0.3207411 -0.2607319 -0.2978759 -0.08836709 0.018559013 0.088588566 -0.102923855 0.063363954 -0.27059907 -0.25278172 0.04869454 0.12186495 0.36768246 -0.31231675 -0.049135365 0.068137094 -0.04419051 -0.20127548 -0.21030869 0.13921706 -0.019290322 0.09130696 -0.05646969 -0.14474013 -0.24563931 0.27011174 0.38087398 -0.058391616 0.101187624 -0.21582285 -0.17674743 -0.10501956 0.40477362 -0.3337738 0.009815566 0.10713826 -0.00940243 0.17357089 -0.13082503 -0.06901916 0.0008417718 0.06039072 -0.0874699 0.161273 0.058694635 0.036838554 0.058607135 0.17556824 -0.1200424 0.09194874 -0.056694414 0.18511774 -0.1457761 -0.2659235 -0.16669288 0.24994983 0.10993386 -0.019530466 0.2755215 0.20434497 0.14511894 -0.28749987 -0.16641796 0.093208246 -0.0046566576 -0.0072118123 -0.16409905 0.20861024 -0.12037645 -0.03656662 -0.02867678 -0.02534757 -0.046572194 0.14781243 0.071936525 0.13805883 0.021494556 0.06892182 -0.22526102 0.098957114 0.12142398 -0.3367351 -0.022105308 0.006483568 -0.035106502 0.07673881 0.1500749 -0.20538634 0.20916124 0.042005 -0.06390799 0.19716251 0.19624123 0.22659276 0.043051876 -0.2607352 -0.055213217 0.025061762 -0.20172624 0.12026665 0.009400818 -0.03658141 -0.08990655 0.10352484 -0.03164798 -0.12558374 -0.15833987 -0.06263172 0.37601757 -0.19043961 -0.09671914 -0.071263194 0.20114374 -0.18342987 0.10257471 0.1123799 0.07098164 0.2848784 0.025612218 -0.077100806
69655 -0.2645835 0.044253156 -0.26703954 -0.15028757 -0.017931784 0.15336013 0.21090998 0.09290729 -0.050315935 -0.37304887 0.1634458 -0.06218383 0.13280006 0.015201681 -0.006078797 -0.32125396 0.18764886 0.026852915 0.23385593 0.282073 -0.07684154 0.30376247 -0.09156439 0.24345471 0.034619343 0.13819288 -0.05170091 -0.19930439 0.4742615 0.20006539 -0.1211368 -0.16598757 -0.21765271 0.39361644 0.27060977 0.33922297 0.2620881 0.01576916 0.1181865 0.6081981 -0.016598424 0.043780364 -0.111748986 0.10412308 -0.11239702 -0.11595964 0.26484352 -0.1914965 -0.17735323 -0.005427496 -0.34642276 -0.24060145 -0.053001635 -0.19095165 0.0735526 -0.13262288 -0.2436022 0.41618714 0.16427884 0.3595296 -0.11734432 -0.17283036 -0.13094483 -0.05137556 -0.29574427 -0.028924974 -0.14301632 0.00758896 -0.057283808 -0.35768455 -0.01580897 0.29409492 -0.19026713 -0.42358682 -0.11057339 -0.029417315 -0.022925306 -0.0070208935 -0.022923632 -0.15645409 0.13168794 0.12691718 0.21557412 -0.30173695 0.13089825 -0.16108516 0.1982414 -0.27968073 -0.105642706 -0.21288306 0.3289392 -0.15148056 0.11441302 -0.23042855 -0.14395721 -0.4468814 -0.052495264 0.12036796 -0.5421396 0.13287349 0.12224827 -0.0948707 -0.39492744 0.1449542 0.19463253 -0.10858196 -0.047432736 0.07311637 -0.24324323 0.10353941 -0.27364203 0.016748486 0.15282461 -0.06723598 0.0039169677 -0.027034266 -0.17519557 -0.29445788 -0.14535636 -0.34955004 -0.2048113 0.07023618 -0.13969114 -0.002209319 -0.2787776 0.030061627 0.15864654 0.059228633
91989 0.09731777 0.32329023 0.03818896 -0.24616173 -0.08803731 0.010961902 0.18580626 0.20652863 -0.097537555 -0.083803274 -0.11322868 -0.09801789 0.16570045 0.07163464 -0.34835416 0.03659915 -0.10859998 0.06185778 -0.024167791 -0.2837465 0.43978477 -0.035082478 0.23148607 -0.10458628 -0.08515942 -0.055166237 -0.09076165 0.08390491 -0.15522735 0.11937305 0.08643417 -0.081700385 -0.13503191 0.2438378 0.21132514 0.011625624 0.3179117 0.023544224 -0.10446911 -0.07241341 0.11973154 -0.16017225 -0.41132498 -0.11691597 0.19619381 0.033935115 0.10067734 0.18843648 -0.15399127 -0.10680555 0.0009810261 -0.2144748 -0.24090731 0.0020186533 0.12502056 0.1501634 0.013420063 0.18577234 -0.20787925 0.045373637 0.10628984 -0.19538227 -0.1612894 0.16223192 0.122647144 0.06545747 0.31050888 -0.07262554 0.23840769 -0.057876054 -0.10147503 -0.06126367 0.11032204 -0.032224044 -0.104716785 0.023896784 -0.21133101 -0.16834964 -0.1189311 0.23353173 -0.07268477 0.2775248 -0.016282795 -0.036793385 -0.05091706 -0.17712949 -0.14202426 -0.07357259 -0.08342577 0.04331908 0.14838485 -0.20516899 0.057667613 0.019575914 -0.024614047 -0.34878373 0.08319929 0.28937235 0.0036999842 -0.08549855 0.27008674 -0.04980158 0.017705034 -0.034085743 -0.01452688 0.15914686 -0.3128187 0.049695544 0.13965023 0.026256518 0.28086975 -0.008799876 -0.16086471 0.06859282 0.026915045 -0.10071538 0.13411954 -0.36770946 -0.084197894 0.020545218 0.03654194 -0.07117796 -0.07865472 0.18906693 -0.00864287 0.045215156 -0.075328685 0.17634854
102902 -0.35864103 0.119153365 -0.088334344 0.11826197 0.20279606 0.16767307 0.19614643 -0.11385221 -0.14414233 0.044443615 0.20625398 0.14909619 -0.22864856 0.38364094 -0.05412535 -0.15819594 -0.3125668 0.34688148 -0.035737503 0.27822858 0.017186932 -0.26978397 0.2766049 0.0089256745 0.0884957 0.12821046 -0.18478706 -0.0014618065 0.53709745 -0.010860333 0.047129232 -0.35101417 0.117818505 0.05600663 0.037385896 0.30652896 -0.06509033 -0.1612608 0.18477556 0.11290924 0.3977099 0.03863708 0.21505629 0.10668691 -0.18692023 -0.190875 -0.2377014 -0.03977078 0.0014045838 -0.08130828 0.15629008 0.09850101 -0.055459492 0.15122285 -0.16842723 0.10483795 0.047126837 -0.1778743 0.09678984 -0.2781581 -0.110143 0.100675255 -0.13986328 -0.20190269 -0.24368201 0.3461248 0.045290772 0.0123874 0.069545954 0.23774949 0.025142733 -0.011768484 0.31246033 -0.01875013 0.08903558 -0.018167973 -0.15715992 -0.029687107 0.030709255 -0.022789821 0.34479883 -0.065320894 0.033305015 0.020963445 0.075803295 -0.0063182274 -0.0058129034 -0.13691004 -0.29468238 -0.19015726 0.04201036 0.10309407 0.094343185 -0.094373755 -0.13818537 -0.44973058 0.03337096 -0.14065358 -0.17375074 0.25358883 -0.1528913 -0.19661564 -0.42581114 -0.029267186 -0.023092244 0.11288198 -0.051703542 -0.112510026 0.1393932 0.3510788 -0.4649665 0.2671192 -0.18089548 -0.0451461 0.08269441 0.06516653 0.13156523 -0.07667833 -0.21335007 -0.18055317 0.07543318 0.44298235 -0.26136392 0.12790751 0.0044009234 0.406792 -0.12835251 0.044109795
79780 0.09769873 0.20028614 -0.36191452 -0.10930477 0.079051115 0.0893719 0.41776928 -0.06600023 0.29970968 -0.23408097 -0.0017117885 -0.34457877 -0.14646913 0.14712623 0.08326812 0.1831995 -0.24147011 0.05021316 0.02562127 0.06200422 0.25328696 -0.2776636 0.24777722 0.29644972 0.071327284 -0.16185936 0.059036653 0.16598333 0.15894249 0.1668678 -0.107526876 -0.22148386 -0.2569773 0.07469919 0.3985477 -0.057230707 0.08114045 -0.25965118 -0.23388259 -0.10667281 0.11469722 -0.11722498 0.44773054 -0.03360597 -0.013437582 0.19820917 -0.15957098 0.08051672 0.12195025 -0.12826344 0.08727317 -0.070716254 -0.020292083 0.18986243 0.21425034 -0.063984305 0.056688882 -0.07048097 -0.21325341 -0.08229473 -0.27728257 0.02189888 -0.18741456 0.09115064 0.008991114 0.0525413 -0.12951548 0.14165094 -0.015727697 -0.12975225 -0.11841354 0.11650403 -0.092845626 0.17704964 -0.09312706 -0.07165782 -0.22362855 -0.06875142 -0.1254111 0.21012996 0.049524095 0.16900475 -0.021948583 -0.017793195 -0.028945496 0.13470891 -0.04217688 -0.39550948 0.044926405 -0.17372452 0.12431328 -0.11982088 -0.016407635 0.101280145 0.37302473 -0.02216583 0.34953982 -0.018231453 -0.18752494 0.005280127 0.044858437 0.04229574 -0.04705253 -0.14204104 0.1053267 0.091941625 0.095647074 0.23075609 0.19477308 0.13776438 0.07902101 0.32932281 -0.052933343 -0.5225852 0.025336932 -0.008518503 0.47714576 -0.12872884 -0.16047785 0.036357995 0.3708554 0.08506714 -0.09099845 0.14571042 0.093077645 0.20244755 -0.15648815 -0.04371737
86383 0.22593056 -0.16670364 -0.09055054 -0.24472676 0.21591419 0.013089439 0.19261459 -0.44133976 0.15168947 0.22291595 -0.22629446 0.11996261 -0.15321058 0.15006767 0.11773393 0.112714946 -0.2568819 0.11813003 -0.057843287 -0.13606025 0.100413464 0.14621647 0.09079561 -0.043890122 -0.09083109 -0.31013736 -0.11130828 0.27682105 -0.015187776 0.2392034 0.164644 -0.102616474 -0.099306494 0.43663883 -0.05122782 0.14820163 0.124300286 -0.18321475 -0.18209496 0.0048608216 -0.124344654 0.03374827 0.0748339 0.14937341 0.03555525 -0.4292517 0.124248624 0.3188925 -0.10946013 0.0028759122 0.019807523 -0.116720535 -0.07582997 -0.12712812 -0.22220288 0.14985698 -0.013684166 -0.25417364 0.1809784 0.23105152 0.34883916 0.058146592 -0.25306678 -0.0954071 0.094309844 0.23680577 0.037553295 0.053654995 0.053309634 -0.01515362 -0.19023255 -0.21494377 0.07997332 0.11577753 0.13122953 -0.07402156 -0.18516125 0.004796601 -0.2673949 -0.40495932 0.033845317 0.32308882 0.24359185 -0.18607935 0.14967293 -0.08084999 -0.061998446 -0.21576703 -0.2992419 0.033966333 0.25940052 -0.06033043 -0.27494243 0.051326133 0.073801935 -0.51311195 -0.055588964 0.09702169 0.07687026 0.104583144 0.0011973626 0.05762945 0.26781315 -0.03485504 -0.14251672 -0.16808014 -0.13454022 -0.0004913372 0.062209904 -0.13788205 -0.16987285 0.11949346 0.045423344 -0.5172808 -0.032386698 -0.009053045 0.18311091 -0.0381957 -0.115769796 -0.13988334 -0.094754584 -0.2445311 -0.06557941 0.16180292 0.09963586 0.22025694 0.1261346 0.009595445
96627 0.12040239 0.15177816 -0.19961931 -0.11623219 -0.09947655 0.18011887 -0.065097764 -0.50191855 -0.17033792 0.023545627 0.00069628336 -0.29031205 -0.021031171 0.08401735 0.08146782 -0.3406957 -0.19895256 0.23267955 -0.076834336 0.57089657 -0.10582693 -0.117491275 0.096719496 0.1934575 0.0660039 -0.050024852 -0.1786038 -0.02037564 0.16335861 0.14538333 0.0035808524 0.06315028 -0.13092564 0.33149916 -0.2429779 -0.087065175 0.0005651434 -0.09576329 0.3298574 0.5106147 0.25242907 0.04745482 -0.078169435 -0.079144 0.018385952 -0.21074277 0.25678173 0.23023224 0.018972177 -0.33490396 0.019551566 0.040124666 -0.080556646 0.0066022947 -0.2323337 -0.054520454 -0.07641291 -0.2671189 -0.0024185963 0.05928735 -0.013798911 -0.30401966 -0.3422133 -0.24250579 0.049959853 0.14156425 0.041472387 0.2770744 -0.06691062 -0.3317663 -0.17555486 -0.021248605 0.15774257 -0.12721379 0.018836776 -0.08325325 -0.028139006 0.23270302 -0.33409917 -0.09020483 -0.12960294 0.29299033 -0.24130088 -0.0760916 0.0006814761 -0.10727962 0.034507103 -0.14542751 -0.07786549 -0.13861406 0.06788012 -0.17808126 -0.01881089 -0.018787999 0.025131084 -0.16286393 0.065536365 -0.08533359 -0.19285762 -0.069739126 0.020928042 -0.114584506 -0.028901607 0.12254269 0.0625715 -0.048561886 -0.20569742 -0.15115508 -0.00845382 -0.08317919 -0.24070363 -0.14125459 -0.09922795 -0.14932266 0.22101179 -0.02566489 -0.017102338 0.11524694 -0.12892166 -0.1379381 0.20117795 0.13830674 -0.40295005 0.30238104 0.0310146 0.35479838 0.12305055 0.03595782
98417 -0.23969397 0.09864017 -0.22925197 -0.20096968 -0.22422032 0.03501864 -0.00028879158 -0.07735108 0.13385938 -0.2711238 -0.18219326 -0.14633551 0.18625669 -0.3401655 0.025618216 -0.099401645 -0.031239605 0.10567477 0.2602198 -0.03042047 0.17045382 -0.19813465 -0.07556343 0.05365394 -0.18672587 0.24001905 -0.19659361 0.03556938 0.10935207 0.18262742 0.030641204 -0.24965034 -0.11978423 0.26955447 0.13748193 -0.10207787 -0.013720927 -0.16689031 -0.1012813 0.582631 0.11786899 0.26005685 -0.16998437 -0.01519527 0.07561475 0.00080870435 0.17524563 0.09632161 -0.20640464 0.027122993 -0.15829234 -0.17860807 -0.09752394 -0.15743276 -0.15196913 -0.2294 -0.14588498 0.0092430385 0.019462856 -0.040824655 0.13136415 -0.5799474 -0.33520478 -0.13675097 0.3528304 0.04094944 0.1689381 -0.008831424 -0.16872244 0.0036056554 -0.21527572 -0.012533509 0.15772398 0.051100932 -0.027735263 -0.44213074 -0.06432686 -0.16817777 0.0589597 0.13341388 0.2588121 -0.07194566 -0.017681623 -0.08169399 -0.03582035 0.048410296 -0.15457338 -0.10151155 -0.028952472 -0.350177 0.30150402 -0.087428465 0.07979937 0.019738574 -0.24091406 -0.057281908 0.056805056 0.14759763 -0.28746024 -0.021224137 -0.055173106 -0.21625917 -0.061024584 0.044951927 0.13841714 -0.39499617 -0.013938761 0.08666146 0.003410881 0.0012934436 -0.015878752 -0.22936288 0.06443723 0.19485265 0.117860414 -0.08669644 -0.08828235 0.12355858 -0.002579416 -0.1612324 0.2824399 -0.046566255 -0.16820244 0.13803735 -0.00017989991 -0.06944184 0.16306873 0.119916014
97112 0.19728342 -0.13425557 -0.087786056 -0.10508254 -0.18223947 -0.30801567 0.34363315 -0.28443575 -0.022304365 0.16292867 -0.0556238 0.11430592 -0.06737748 -0.061534908 -0.038987897 0.029771829 0.08318468 -0.018620355 -0.18695015 -0.18154073 -0.07438339 -0.22213733 0.27004686 -0.039053936 -0.086429864 0.09898561 -0.12304145 0.21781008 -0.17935567 0.11389409 0.20661259 -0.32232898 0.005870823 0.028548962 0.20683134 0.20740949 -0.12558256 -0.17422089 0.10916141 -0.0128448345 0.2847051 0.20692053 -0.087891966 -0.17540975 -0.14405316 -0.25231478 -0.24908271 -0.023073034 0.118174165 0.097207546 -0.0075575123 -0.0884503 -0.28398567 0.03461491 -0.16954397 0.20976378 -0.18083964 -0.16990867 0.4879677 0.19511595 -0.14099199 -0.13193567 -0.42996392 -0.010900469 -0.0064672893 0.14510661 -0.02962076 0.3235475 -0.28567618 0.13662753 -0.00013264279 0.37731892 0.4188392 0.05998603 -0.2238672 -0.18867174 0.004084227 -0.040465746 0.3335339 -0.0548551 0.1137852 -0.31266874 0.0056937803 -0.12808537 0.097996116 0.090752535 -0.19880156 -0.36602533 -0.2617103 0.101496205 0.17118226 0.2234112 0.16684029 -0.42229033 0.22248615 -0.08917381 0.37827373 0.010226059 -0.08667258 0.18492009 0.003921083 0.009282437 -0.1490027 0.22592935 -0.5634249 0.27589962 -0.23017597 -0.055464152 -0.057233907 0.4475251 -0.59896797 0.39876536 -0.10258635 -0.184195 -0.14574432 -0.03240149 -0.055489425 -0.18851218 -0.06094915 0.012805966 -0.092622414 -0.07725739 0.22925779 0.023710208 -0.1572715 0.23416428 -0.2823326 0.03721853
101969 0.17292805 0.10403486 -0.15443718 -0.1585438 -0.06640925 0.11293389 0.16589132 -0.16261892 0.18623465 -0.014949664 0.10637169 -0.27838874 0.12318267 -0.12682427 -0.08241943 0.22764179 -0.2981417 0.14719355 0.1356822 -0.31401503 0.02655485 0.016403373 0.23510584 -0.042727865 -0.11613724 -0.22420292 -0.11968446 0.059234332 -0.22753215 -0.021792447 -0.093446314 -0.29772854 -0.031248655 -0.0009489492 0.41769665 -0.14809917 0.1857825 -0.28549787 -0.20157664 -0.03174432 0.10882188 -0.112325735 -0.17672908 -0.12091763 -0.04748698 -0.15506433 -0.22722635 0.023737673 -0.06099624 0.012750547 -0.12038743 0.08575039 -0.32124943 0.389485 -0.23340912 0.00095564884 0.027367987 0.19624913 -0.14104946 0.1825616 0.13694151 0.12501146 -0.22081318 0.24859037 0.1400482 0.11972909 -0.13612513 0.0869798 0.10665383 -0.08038923 -0.29994133 -0.08974214 0.075008504 0.07986972 -0.051002532 -0.06328466 -0.16628242 -0.06129845 0.2938113 -0.00376578 0.11937839 0.101701975 0.13439733 -0.21785755 -0.1279702 -0.17579347 -0.1122102 -0.13449205 0.051835995 -0.19102788 0.21035405 -0.16401412 -0.10579646 0.04513804 0.09860914 -0.04671115 -0.031236224 -0.110717975 -0.060656242 -0.06926861 -0.09719615 -0.13384463 -0.13626045 0.10422507 0.045909707 0.08627109 -0.18111236 0.08894038 0.180212 0.14691472 0.20596121 0.25615224 0.018519152 0.14216074 0.17267278 -0.32406396 0.3007577 -0.2197967 -0.009526951 -0.10300104 0.05495084 0.15547301 -0.24506703 0.20470347 -0.08186914 0.05935955 0.05551615 0.406917
98285 0.16871233 0.12004556 -0.27582654 -0.110787 -0.03269103 0.14015652 0.1553585 -0.0783783 0.4415134 -0.2468378 -0.27661505 -0.19054826 -0.04712807 0.26583925 -0.15875581 0.100601025 -0.3720528 -0.22892372 -0.19494368 0.003766182 0.41854477 -0.15989083 0.03788987 0.21432206 -0.1149409 -0.28300497 -0.06938459 0.08713352 0.16600175 0.2198899 -0.05937898 0.08567384 -0.13547325 0.32790604 0.26304555 0.005541523 0.25568724 -0.23548317 -0.20812039 -0.17109163 0.3249151 -0.08872735 0.027647957 0.07204105 0.24973403 0.18064255 0.007738168 0.017589638 0.2432914 0.029143762 -0.20040405 0.13115476 0.05332916 0.05977763 0.020714255 0.11432586 -0.046098664 0.045351587 -0.16089289 -0.05773917 -0.17096803 -0.15255275 -0.25561717 0.06432661 0.13857919 0.0002504603 0.21533799 0.07481934 0.012828297 -0.10913616 -0.16367248 0.04847159 -0.065299414 -0.11054519 -0.047378253 0.179635 -0.13030557 -0.1994129 -0.16179112 -0.030789835 -0.04316314 0.197013 0.112894215 0.14206776 -0.043260127 0.14267714 -0.21453027 0.029329874 0.054197937 -0.16514893 0.08303874 -0.14264569 0.008675386 0.12108906 -0.025898924 -0.3252789 0.34589058 0.08742453 -0.13841519 0.0720105 0.10693436 0.06833738 -0.19476013 -0.1759238 -0.06129641 0.09353769 -0.07037899 0.071935564 0.09201115 0.09876246 0.018154887 0.10199276 -0.031865995 -0.029166237 -0.0662986 0.03833216 0.15678208 -0.039924715 0.11921727 -0.05688029 0.058921684 -0.2014838 0.13204817 0.025108112 0.098193765 0.1972754 0.09575296 -0.08748273
87317 0.092443235 0.15329576 -0.38412046 0.07063078 -0.24055599 -0.16339746 0.080761634 -0.2433112 0.23048253 -0.57629293 0.105086274 0.37605652 0.14413299 0.20955089 -0.3959923 0.26880255 0.2745238 0.28988922 0.28883252 -0.08834171 0.13173017 -0.22375365 0.3152803 0.13734587 -0.16731924 -0.06835744 0.36611408 -0.21255943 -0.15227285 0.4668151 -0.02368719 -0.23396721 0.20072225 0.15188652 -0.16856736 -0.09169866 0.14191198 -0.18865454 0.048894163 0.146405 0.7671162 -0.23940082 0.167799 0.0048949905 0.1801419 -0.25558218 -0.028984506 -0.24024348 0.2957645 0.27928555 -0.12982976 -0.080100775 -0.051703136 -0.3832079 -0.23513606 -0.16154434 0.047643226 0.048145834 -0.05018143 0.15654008 0.13667989 -0.059321173 0.07014978 0.088033766 0.10410956 0.094609514 -0.2492617 0.19771048 0.09986659 -0.008050445 -0.2516592 0.22302952 0.20851965 0.18753888 0.2980499 -0.103193425 -0.07490027 -0.066657506 -0.12620886 0.048425786 0.4367762 0.41657656 -0.031483617 -0.29939735 -0.16250573 -0.09123222 0.16757597 0.16621037 -0.5157316 -0.10474432 -0.02033709 0.27969104 0.42718416 -0.011505932 -0.20100488 0.14679073 -0.29125294 0.33728465 -0.3731661 -0.36050192 -0.3840903 -0.09656335 0.24724257 -0.008915031 -0.30891648 0.10351401 0.078225344 -0.22609112 -0.33773568 0.21674152 -0.12705737 -0.1315618 0.16636409 -0.17230825 0.25374335 -0.18246344 0.2792196 0.101310514 -0.4162073 -0.0072662393 0.121981665 -0.051742245 -0.09831203 0.031014036 0.35959828 0.18677072 -0.26802704 0.055493664
101272 -0.23908244 0.08983753 0.045993794 -0.3136344 -0.10783032 0.1799218 0.07941488 0.047350876 -0.18535219 0.029464245 -0.12193974 -0.25283608 -0.17425527 -0.10230893 -0.17482635 -0.16008987 -0.2409435 0.18680653 0.28843957 0.045006122 0.23772125 -0.30129158 0.015309725 0.32953563 -0.20379421 0.39328057 -0.09337776 0.014755022 0.10226171 0.20964225 -0.10151921 -0.16749978 -0.4282218 0.1399916 0.054581277 -0.33534095 -0.013281171 -0.17016158 0.0103966305 0.6763498 0.029905144 0.25868014 -0.045619763 -0.0098194415 -0.07713304 -0.47854337 0.28684095 0.280266 -0.39182845 -0.060434293 -0.1802154 -0.05558714 0.16679916 -0.18654998 -0.28635934 -0.3351413 -0.31708223 -0.098632395 0.031503554 0.2743001 0.22739305 -0.35278895 -0.049945764 0.01948705 0.07287564 0.22601083 -0.053728353 0.084160745 0.04724928 -0.110185064 -0.06390564 0.14338304 -0.011994611 -0.10978831 -0.098788194 -0.25051004 0.09731409 0.29856494 -0.088329464 0.08883071 0.14460687 0.35759994 -0.12013766 -0.09330185 0.067606375 0.10315345 0.0717733 -0.25425977 0.028456854 -0.23262066 -0.11850723 -0.08134587 -0.1159486 0.09692252 0.003911055 -0.36683568 0.109781064 0.07153896 -0.3751042 -0.006312731 -0.08252569 -0.1838355 -0.15514994 -0.04783165 0.2821449 -0.24905042 -0.1848685 -0.1420698 0.13592045 0.11203303 -0.21892233 -0.22771709 -0.06422744 -0.08254958 -0.16091573 -0.12584093 -0.23874407 0.13935196 0.10424923 -0.060649455 0.21859121 0.31879464 -0.3029202 0.13876422 0.31925768 0.3353074 0.092123784 -0.11641684
98403 0.14579692 0.13731968 -0.008072654 -0.29024434 -0.036680665 -0.07199 0.046239313 0.06854762 0.048023056 0.07289567 -0.14748763 0.11192091 -0.060859844 0.0075442796 -0.09895317 0.5335257 -0.099371 0.17388225 -0.04294485 0.212388 0.043687638 0.054955017 0.39718935 -0.07304475 -0.15700413 -0.2962227 -0.3394669 -0.23191248 -0.052243564 0.20491505 -0.14509933 -0.48369464 -0.039747383 0.040218413 0.3081503 0.18415193 0.3132952 0.040228408 -0.08621623 0.19494273 0.25427762 -0.1605591 -0.18142343 0.10122221 -0.0434355 0.16636983 -0.09983855 0.12235321 -0.071725 -0.006400083 -0.23111992 0.05798255 -0.13528004 0.20747522 -0.01501743 -0.21250777 0.083975665 0.061010696 -0.36726615 -0.00051090657 0.006679281 -0.2756513 -0.07342151 0.20319879 0.060844146 0.2514476 0.0015493671 -0.076363906 0.1602054 0.03193088 -0.07774902 0.1529603 0.35165206 0.1843371 -0.30056006 0.2863238 -0.029457621 0.19355501 0.027403047 0.28126705 0.3213098 0.15810765 0.020351108 -0.100044236 0.38723305 -0.30202806 -0.08731377 -0.17591582 -0.20020857 0.05154882 0.22750744 -0.029150313 0.091349706 -0.002834042 0.028756723 -0.30692527 0.13576607 0.21094126 0.11491127 0.01635386 -0.2465108 -0.041410282 0.16441472 0.000754469 0.039639246 0.16804579 0.19664398 0.344365 -0.06483101 0.37644714 0.038032528 0.36958444 -0.42463455 0.01140464 0.17078638 0.065518185 -0.085367575 0.29179072 -0.098772675 -0.28753918 -0.1305716 0.17093414 -0.33576173 0.13821998 -0.21959673 0.1124668 -0.15104324 0.4997902
92249 0.035372358 -0.12140167 0.0327516 -0.14585291 0.019127667 -0.02327077 -0.06992777 -0.16736513 0.058064293 -0.35227892 0.008517128 0.13747652 -0.03586744 0.03527206 -0.2459012 0.12936924 0.35073724 -0.11059602 0.1303762 -0.27016258 -0.24530925 -0.54341984 0.25703782 0.13665612 -0.12607583 -0.0119563285 0.038408402 -0.24641885 0.074226186 0.25341064 0.14368205 -0.32641372 0.17814365 0.034319986 0.11951749 0.010196084 -0.22025749 -0.1852988 0.52064157 0.08254878 0.2529842 0.42832008 0.08795101 0.0056564785 -0.08595961 -0.48666543 -0.15523195 -0.16590367 -0.18191011 -0.008771684 -0.22659364 0.3662202 -0.17527737 -0.19104365 0.0071051377 -0.12429898 -0.16842534 0.119270176 -0.21498995 0.005190827 0.2935444 -0.38924995 -0.42418933 0.009955056 -0.1243902 0.3625117 -0.012645228 0.1491171 0.12457273 0.037515514 0.12332454 0.42004237 0.34713227 -0.16149962 -0.20401275 -0.25049326 -0.15054113 -0.046636954 -0.47899127 0.13566883 0.25238353 -0.22671656 -0.34439433 -0.21738018 -0.20991094 -0.0068030898 0.012821278 0.10562487 -0.35382828 -0.38215503 -0.2216956 0.2827749 -0.045051612 0.33940372 0.04172406 -0.67638165 0.030754756 0.3555024 -0.059786595 0.054541588 0.12951364 -0.25745568 -0.15023595 0.18341449 0.03023379 -0.51227903 -0.08344639 -0.1296357 -0.30130103 0.21359278 -0.060182996 0.16558422 0.09078943 0.07291479 0.041299492 0.13530166 0.11098052 0.02687746 -0.07907533 0.24162222 -0.13247557 0.12649496 0.1365086 0.14536393 0.19343567 0.34919024 0.33758068 0.12200865
69623 0.039232142 0.025981588 -0.06632858 -0.26618746 -0.20587151 0.07332579 0.36536166 -0.12487983 -0.06095111 -0.1256728 0.22667298 -0.16300924 -0.12064221 -0.003847859 -0.08744823 -0.12396848 -0.045453157 -0.2794721 -0.12496751 0.12714279 -0.037843253 0.14661506 0.23445283 -0.122831225 -0.04623925 -0.015692776 -0.04389282 0.08357483 0.032747224 0.21679719 0.11801588 -0.3489082 0.018976219 0.22935234 0.23566045 0.39282107 0.08194798 0.19051494 0.13445176 0.17477609 0.010622733 0.19407128 -0.34987268 0.10351711 -0.03440241 0.038919654 -0.061122335 -0.167509 0.08195167 -0.08234478 -0.118873395 0.07811011 0.16523497 -0.0062703523 -0.26804116 0.040428307 -0.05830935 -0.21579441 0.19368261 -0.27174634 0.31580147 -0.4236968 -0.41294217 -0.14681612 -0.21773726 0.1984973 -0.16723381 -0.16534819 -0.028164478 0.23910421 -0.0448406 0.08063295 0.31017604 0.16028966 -0.083271615 0.35609153 -0.006859698 -0.08446516 0.11916724 -0.15873538 0.11968467 -0.10679537 -0.18860507 0.08080397 -0.13081543 -0.2951231 -0.21148884 -0.12679446 -0.15853232 -0.107099116 0.24956061 0.4421296 -0.05603876 -0.04527117 -0.18176782 -0.2242307 0.05958367 0.25320366 -0.22980756 0.20691861 0.28881565 0.08742208 -0.21048461 0.03343618 0.039934002 -0.004051059 0.12900378 -0.17662624 -0.30009183 0.48893878 -0.10477413 0.37575087 -0.24233009 -0.13386607 0.006034882 0.13524069 0.06468424 0.16769847 -0.12867479 -0.25415668 0.21177264 0.23118842 0.022481035 0.11601199 0.101992905 0.42655277 0.09537456 -0.050151695
95336 0.16414313 0.2435771 -0.35749656 0.029223586 -0.09157286 0.09070682 -0.039678626 -0.4877699 -0.07993807 -0.100804314 0.07222325 -0.39997035 -0.056882605 0.1527817 0.13570032 -0.13131437 -0.27770627 0.20972691 0.13067113 0.5261945 -0.16186869 -0.03542484 0.07574713 0.26157698 -0.0057652723 -0.14325313 -0.15631463 0.014105147 0.20018423 0.16296883 -0.14017846 -0.021760128 -0.2612805 0.28732264 -0.08516031 -0.030985547 -0.14600627 -0.14637059 0.3772682 0.43874937 0.18387428 0.23885527 -0.051061194 -0.15626343 -0.073932245 -0.2534348 0.30163246 0.08188464 -0.050662573 -0.12073445 -0.010829408 0.042828374 0.10507464 -0.09900289 -0.030325571 -0.15054832 0.1922363 -0.27324882 0.120689586 0.117796816 0.14445812 -0.19068435 -0.247314 -0.08336673 -0.13685238 -0.059417844 0.19191696 0.13726643 -0.0050499444 -0.17614783 -0.07245715 -0.3115207 0.2127035 -0.24217555 -0.062235404 -0.1888598 0.08770597 0.12638873 -0.3485354 0.073156156 -0.17243446 0.25963685 -0.21364495 -0.21625298 -0.14895062 -0.11992341 0.055387005 -0.16349925 -0.24063002 -0.008470361 0.11992868 -0.070353895 -0.10741269 0.08043161 -0.12480273 -0.17138721 0.025406346 0.007391406 -0.31704378 0.08575375 0.12778266 -0.17451215 -0.18331757 0.06590243 -0.06506786 0.102281384 -0.33552554 -0.044519663 0.19624619 -0.04724162 -0.32809666 -0.11116074 -0.010858353 -0.18468933 0.34297696 0.08907321 -0.14754777 -0.13623871 -0.2113814 -0.08497609 0.2538048 0.3139684 -0.3399043 0.30957016 0.15474114 0.41105208 0.05469771 -0.10325102
97103 0.51948917 0.120719284 -0.120685 0.06976646 -0.12177291 -0.09435507 0.329102 -0.16379358 -0.077010594 -0.29079184 0.10715671 0.11143197 -0.16861758 0.14359121 -0.12629427 0.2895095 -0.0645402 0.243243 -0.01372035 0.19140625 0.059579827 0.022968758 0.34591118 0.08077848 0.0046145124 0.13267131 -0.46149266 0.06996257 -0.2037469 0.15394728 0.05813781 -0.3085078 -0.1958497 0.18137145 0.15862463 -0.016872883 0.09408167 -0.28937685 -0.36984545 0.049728323 0.22708218 0.18023247 -0.0025138543 -0.04202199 0.18978256 -0.27687144 -0.24100016 0.07597054 0.2688113 -0.08197705 0.12644595 0.2740926 -0.11689561 -0.07659843 -0.12153106 -0.039615873 0.21845573 0.10462926 0.073009744 -0.04565644 -0.19709836 -0.010319656 -0.05304385 0.23096144 -0.3314166 0.27324495 -0.18532795 0.120876774 -0.21576412 -0.023875836 0.19787091 0.04279416 -0.017000549 -0.04732394 0.058759395 0.021279642 -0.2753186 -0.21510662 0.12852874 0.19851694 -0.026352037 -0.34773117 0.15963933 0.01129091 0.16837995 0.1482636 -0.2067388 -0.09636708 -0.30354366 -0.2831362 0.20827128 0.07718313 0.04648333 0.016301492 -0.1647496 -0.13582663 0.16593364 -0.1429373 -0.19521748 -0.08457177 -0.003932287 -0.050320722 -0.006139831 -0.0925022 -0.12946597 -0.14338954 -0.022451483 -0.11761058 -0.008818375 0.18897465 0.18728271 0.13190676 -0.109188646 -0.29969466 0.031329785 0.010693547 -0.06363195 0.17806572 0.04261509 0.13313891 0.115894236 0.3519923 -0.052924342 -0.011140721 -0.021528121 -0.061406888 -0.23463416 0.13841489
71984 -0.07867833 0.5067989 -0.09820501 -0.20391887 0.09738092 -0.18152055 0.09833344 -0.14304043 0.008624153 -0.12501703 0.21644619 0.03317493 0.036474984 0.05556051 -0.40471005 -0.14115505 -0.08864741 -0.106054954 -0.16617735 -0.12884389 -0.1969678 -0.32510567 0.38980794 -0.1894749 0.17738646 0.16735066 -0.006096208 0.29824308 -0.00020773817 -0.045611374 0.27702612 -0.08301212 -0.047890548 -0.11044169 0.12584296 -0.2645941 0.0032643257 0.053687345 0.29270983 -0.22002025 0.059316956 -0.094015315 -0.06413342 -0.056033857 -0.032603998 -0.106906265 0.15857127 -0.045643467 0.100444764 -0.15489599 -0.029816054 -0.17921074 -0.5301847 0.0073152115 -0.01897858 0.08458447 0.022521954 0.1760148 0.005276271 -0.09058573 -0.0018426604 0.08487086 -0.29636413 0.28419992 -0.047292262 -0.19057743 0.34369954 0.04865983 0.110405095 0.12215376 -0.22821987 0.007981481 0.15109298 -0.3920309 -0.18812945 -0.12673162 -0.0276438 -0.06127629 -0.038929507 -0.057014752 0.24612093 -0.014912342 -0.08714232 0.14175087 0.331864 0.06673149 -0.26365608 -0.08261631 -0.0089599425 -0.38184604 0.25889862 0.08871989 -0.17245133 -0.016341079 -0.22758953 -0.09222526 0.2544796 0.53338754 -0.21891363 -0.098352306 0.36143303 -0.0060255216 -0.023909472 0.0006058418 0.03094623 -0.20523599 -0.31730634 -0.08537685 -0.14666449 0.3692308 -0.0042025647 -0.07953835 -0.25034752 -0.32358006 -0.040159877 0.25717437 0.07730314 -0.07544456 -0.10482711 0.11000253 -0.04920235 0.013112287 -0.100649886 -0.16026045 0.13450213 -0.0022703663 0.27089012 0.048103772
95405 0.21651752 -0.18747836 -0.1716747 -0.10792953 -0.2797219 0.15976539 0.31706828 -0.2956985 -0.2948982 -0.25142524 0.2567876 -0.038178068 -0.2627663 0.72100574 -0.123883575 0.020686733 -0.12953718 -0.033516392 0.014172297 -0.023821918 0.08301845 -0.27946168 0.33857995 -0.2845376 0.114809036 0.13157699 0.06461664 0.028196832 0.060043808 -0.013119712 -0.077708155 -0.26361156 -0.13715063 0.28066984 0.3547999 0.17950338 -0.47271648 0.12718178 -0.06448804 -0.00010612111 -0.13551171 0.024975857 0.36747432 0.07549457 0.3336817 0.20568459 0.08817959 -0.12019335 -0.0778569 -0.16392432 0.48290417 -0.12081496 -0.0002802227 0.14299837 -0.26936975 -0.023146914 -0.1109676 -0.23626165 0.17842785 0.2262189 -0.3429481 0.10413073 0.0142234815 0.23194171 -0.03087695 0.25214514 -0.14788067 -0.098839745 0.27966857 0.07382901 -0.10389428 0.3134643 0.16094065 -0.11774471 -0.36740056 0.18071112 -0.20163895 -0.0662786 0.024294743 0.07791927 0.20404944 -0.15767924 0.23140387 -0.028491553 0.19902216 -0.045472905 -0.025895867 -0.15430737 -0.11673275 -0.046538174 -0.10279005 -0.10340673 0.1533138 -0.082059145 0.016498955 -0.41425896 0.24520454 0.19469438 -0.12746198 0.48210457 -0.1264045 -0.08002438 -0.09013363 0.16820306 0.0049538314 0.048615973 -0.10177993 0.12324437 -0.07814431 0.2826063 -0.43199006 0.12300267 -0.10521443 0.010569339 -0.014414466 0.115331635 -0.083196476 -0.036278654 -0.22316009 -0.055195373 0.15805523 0.23380913 -0.24515161 0.13689344 0.07740303 0.32177126 -0.16531098 -0.20014195
72923 -0.11227422 0.008254292 -0.4250482 -0.20889479 0.043945596 0.12787566 0.2602214 0.24918951 0.13309503 -0.28334674 0.022181097 -0.056568727 -0.20116973 0.20085613 -0.20372804 -0.11109928 -0.20723979 -0.10810936 0.10156974 0.18770091 0.08816372 -0.021043789 0.012755889 -0.07356574 -0.05999546 0.058864456 -0.08256697 -0.08982943 0.37033746 0.10149572 -0.094441764 -0.09361458 -0.008473279 0.16302083 0.22035536 0.3028676 0.1808186 0.25272843 0.0498379 -0.077194795 0.06319513 0.007849621 -0.09968151 0.42008743 0.36659157 0.07019123 -0.10347849 -0.4366145 0.09356867 -0.121420935 -0.052883945 0.3552767 -0.040040523 -0.13825317 -0.34449288 0.35012352 0.22370706 0.033381663 0.28568602 -0.104429714 0.39627036 -0.16892782 -0.24981862 -0.07078712 -0.21213222 0.25229818 0.016833754 -0.03290197 -0.041145332 0.10337827 -0.046680026 -0.092719525 -9.2103495e-05 0.11140117 0.15442999 0.41466975 -0.21727887 0.09011535 0.31615144 0.012916946 0.12995502 -0.15842707 0.096872404 -0.16084652 0.035603035 -0.22351512 -0.14347392 0.0045794537 0.07201171 -0.23993164 0.1098111 0.05938702 0.112678654 -0.150106 0.09062443 -0.49671018 -0.08539377 0.3013695 0.055082742 0.14666995 0.124480486 0.111117706 -0.19139022 0.10231581 0.35996494 0.36411354 -0.090252124 -0.22911894 0.11061346 0.243217 0.026714869 -0.0054118983 0.07590225 -0.26333347 0.028460726 0.06579127 0.2411023 0.029026885 -0.24738616 -0.28928527 -0.28229904 0.23940678 0.018215887 -0.15363291 -0.067669034 0.20663723 0.07236099 0.0701
62698 0.13410403 0.12700938 -0.2544367 -0.096432716 0.08495936 -0.08289883 0.17134617 -0.3185807 0.26531276 0.07255952 -0.15976219 -0.05924211 -0.08573448 0.24768555 0.093277864 -0.040171955 -0.2573559 0.19754352 -0.05246356 0.13679782 -0.00262167 -0.013055959 0.28046203 0.26295593 0.07882896 0.025590235 -0.002664222 0.057487722 -0.13606302 -0.047374267 0.05103824 -0.19005169 -0.3567446 0.21602878 -0.26595426 0.22982308 0.13890965 -0.1499716 0.02347426 0.32859027 -0.03107597 -0.12246452 0.35361388 0.120702304 -0.14693679 -0.1318454 0.026332166 0.15423264 -0.085787125 -0.1432473 0.33194882 -0.24493887 0.13781779 -0.2570589 -0.3766735 0.12316668 -0.21499929 0.056251973 -0.002885164 -0.17086104 0.1943866 -0.20440182 -0.03389912 0.19255523 -0.16017985 -0.049500696 -0.09875944 0.0796095 -0.064163856 -0.12839559 0.07461869 0.064582944 0.2351561 -0.4534456 0.045000993 0.22246131 -0.16412172 0.09768447 -0.24014466 -0.17311926 0.11230541 -0.028481063 -0.16719949 -0.07704489 -0.13582684 -0.18848667 -0.0076600015 -0.31327993 -0.32229874 0.10766764 -0.065215565 -0.19651467 -0.12159952 -0.012766752 -0.073353514 -0.1787719 0.07320852 0.06322166 0.10996353 0.09989959 0.2632343 -0.050882727 -0.12102322 0.14819013 0.045305904 0.03200382 -0.34394145 -0.092735976 -0.13813952 -0.057444416 -0.36581466 0.052105077 0.052909113 -0.36280316 -0.1293239 -0.16154918 0.33900678 -0.06497748 -0.12292111 -0.16010447 0.34231257 0.1122752 -0.41096398 0.23682289 0.2519932 0.38430962 0.11105157 0.05891883
